FANN_FLO_2.1
num_layers=7
learning_rate=0.700000
connection_rate=1.000000
network_type=1
learning_momentum=0.000000
training_algorithm=2
train_error_function=0
train_stop_function=1
cascade_output_change_fraction=0.010000
quickprop_decay=-0.000100
quickprop_mu=1.750000
rprop_increase_factor=1.200000
rprop_decrease_factor=0.500000
rprop_delta_min=0.000000
rprop_delta_max=50.000000
rprop_delta_zero=0.100000
cascade_output_stagnation_epochs=12
cascade_candidate_change_fraction=0.010000
cascade_candidate_stagnation_epochs=12
cascade_max_out_epochs=150
cascade_max_cand_epochs=150
cascade_num_candidate_groups=8
bit_fail_limit=8.99999976158142089844e-01
cascade_candidate_limit=1.00000000000000000000e+03
cascade_weight_multiplier=4.00000005960464477539e-01
cascade_activation_functions_count=1
cascade_activation_functions=5 
cascade_activation_steepnesses_count=1
cascade_activation_steepnesses=1.00000000000000000000e+00 
layer_sizes=9 1 1 1 1 1 1 
scale_included=0
neurons (num_inputs, activation_function, activation_steepness)=(0, 0, 0.00000000000000000000e+00) (0, 0, 0.00000000000000000000e+00) (0, 0, 0.00000000000000000000e+00) (0, 0, 0.00000000000000000000e+00) (0, 0, 0.00000000000000000000e+00) (0, 0, 0.00000000000000000000e+00) (0, 0, 0.00000000000000000000e+00) (0, 0, 0.00000000000000000000e+00) (0, 0, 0.00000000000000000000e+00) (9, 5, 1.00000000000000000000e+00) (10, 5, 1.00000000000000000000e+00) (11, 5, 1.00000000000000000000e+00) (12, 5, 1.00000000000000000000e+00) (13, 5, 1.00000000000000000000e+00) (14, 0, 5.00000000000000000000e-01) 
connections (connected_to_neuron, weight)=(0, 1.78847157955169677734e+00) (1, 1.78804314136505126953e+00) (2, 1.78604269027709960938e+00) (3, 1.78909027576446533203e+00) (4, 1.78764188289642333984e+00) (5, 1.78816831111907958984e+00) (6, 1.78683853149414062500e+00) (7, 1.78589665889739990234e+00) (8, -1.78720819950103759766e+00) (0, 1.59944915771484375000e+00) (1, 1.60035383701324462891e+00) (2, 1.59394764900207519531e+00) (3, 1.60646545886993408203e+00) (4, 1.60023581981658935547e+00) (5, 1.59204554557800292969e+00) (6, 1.58572566509246826172e+00) (7, 1.59098446369171142578e+00) (8, -1.60271120071411132812e+00) (9, -2.90610623359680175781e+00) (0, 1.74527132511138916016e+00) (1, 1.75052535533905029297e+00) (2, 1.74354052543640136719e+00) (3, 1.73019134998321533203e+00) (4, 1.74944138526916503906e+00) (5, 1.74547791481018066406e+00) (6, 1.73546707630157470703e+00) (7, 1.74428153038024902344e+00) (8, -1.73383617401123046875e+00) (9, -3.78963732719421386719e+00) (10, -2.21395874023437500000e+00) (0, -7.97458767890930175781e-01) (1, -8.01627814769744873047e-01) (2, -7.96161293983459472656e-01) (3, -7.83946454524993896484e-01) (4, -8.00560891628265380859e-01) (5, -7.97738671302795410156e-01) (6, -7.90288090705871582031e-01) (7, -7.99062550067901611328e-01) (8, 7.95051038265228271484e-01) (9, 1.91049480438232421875e+00) (10, 1.21548473834991455078e+00) (11, 1.13277268409729003906e+00) (0, 2.75263756513595581055e-01) (1, 2.76836574077606201172e-01) (2, 2.74648904800415039062e-01) (3, 2.70569413900375366211e-01) (4, 2.76210993528366088867e-01) (5, 2.75328338146209716797e-01) (6, 2.72464334964752197266e-01) (7, 2.75781035423278808594e-01) (8, -2.75686353445053100586e-01) (9, -6.67329370975494384766e-01) (10, -4.30639266967773437500e-01) (11, -4.17952418327331542969e-01) (12, 5.29527425765991210938e-01) (0, -4.08202886581420898438e-01) (1, -4.17990565299987792969e-01) (2, -4.15750980377197265625e-01) (3, -3.62126380205154418945e-01) (4, -4.15597915649414062500e-01) (5, -4.25374746322631835938e-01) (6, -4.12617206573486328125e-01) (7, -4.17238473892211914062e-01) (8, 3.75249654054641723633e-01) (9, 2.10562133789062500000e+00) (10, -9.00932312011718750000e-01) (11, 2.80789756774902343750e+00) (12, 1.95176184177398681641e+00) (13, 8.28813171386718750000e+00) 
