FANN_FLO_2.1
num_layers=3
learning_rate=0.700000
connection_rate=1.000000
network_type=0
learning_momentum=0.400000
training_algorithm=0
train_error_function=1
train_stop_function=0
cascade_output_change_fraction=0.010000
quickprop_decay=-0.000100
quickprop_mu=1.750000
rprop_increase_factor=1.200000
rprop_decrease_factor=0.500000
rprop_delta_min=0.000000
rprop_delta_max=50.000000
rprop_delta_zero=0.100000
cascade_output_stagnation_epochs=12
cascade_candidate_change_fraction=0.010000
cascade_candidate_stagnation_epochs=12
cascade_max_out_epochs=150
cascade_min_out_epochs=50
cascade_max_cand_epochs=150
cascade_min_cand_epochs=50
cascade_num_candidate_groups=2
bit_fail_limit=3.49999994039535522461e-01
cascade_candidate_limit=1.00000000000000000000e+03
cascade_weight_multiplier=4.00000005960464477539e-01
cascade_activation_functions_count=10
cascade_activation_functions=3 5 7 8 10 11 14 15 16 17 
cascade_activation_steepnesses_count=4
cascade_activation_steepnesses=2.50000000000000000000e-01 5.00000000000000000000e-01 7.50000000000000000000e-01 1.00000000000000000000e+00 
layer_sizes=49 97 4 
scale_included=0
neurons (num_inputs, activation_function, activation_steepness)=(0, 0, 0.00000000000000000000e+00) (0, 0, 0.00000000000000000000e+00) (0, 0, 0.00000000000000000000e+00) (0, 0, 0.00000000000000000000e+00) (0, 0, 0.00000000000000000000e+00) (0, 0, 0.00000000000000000000e+00) (0, 0, 0.00000000000000000000e+00) (0, 0, 0.00000000000000000000e+00) (0, 0, 0.00000000000000000000e+00) (0, 0, 0.00000000000000000000e+00) (0, 0, 0.00000000000000000000e+00) (0, 0, 0.00000000000000000000e+00) (0, 0, 0.00000000000000000000e+00) (0, 0, 0.00000000000000000000e+00) (0, 0, 0.00000000000000000000e+00) (0, 0, 0.00000000000000000000e+00) (0, 0, 0.00000000000000000000e+00) (0, 0, 0.00000000000000000000e+00) (0, 0, 0.00000000000000000000e+00) (0, 0, 0.00000000000000000000e+00) (0, 0, 0.00000000000000000000e+00) (0, 0, 0.00000000000000000000e+00) (0, 0, 0.00000000000000000000e+00) (0, 0, 0.00000000000000000000e+00) (0, 0, 0.00000000000000000000e+00) (0, 0, 0.00000000000000000000e+00) (0, 0, 0.00000000000000000000e+00) (0, 0, 0.00000000000000000000e+00) (0, 0, 0.00000000000000000000e+00) (0, 0, 0.00000000000000000000e+00) (0, 0, 0.00000000000000000000e+00) (0, 0, 0.00000000000000000000e+00) (0, 0, 0.00000000000000000000e+00) (0, 0, 0.00000000000000000000e+00) (0, 0, 0.00000000000000000000e+00) (0, 0, 0.00000000000000000000e+00) (0, 0, 0.00000000000000000000e+00) (0, 0, 0.00000000000000000000e+00) (0, 0, 0.00000000000000000000e+00) (0, 0, 0.00000000000000000000e+00) (0, 0, 0.00000000000000000000e+00) (0, 0, 0.00000000000000000000e+00) (0, 0, 0.00000000000000000000e+00) (0, 0, 0.00000000000000000000e+00) (0, 0, 0.00000000000000000000e+00) (0, 0, 0.00000000000000000000e+00) (0, 0, 0.00000000000000000000e+00) (0, 0, 0.00000000000000000000e+00) (0, 0, 0.00000000000000000000e+00) (49, 4, 5.00000000000000000000e-01) (49, 4, 5.00000000000000000000e-01) (49, 4, 5.00000000000000000000e-01) (49, 4, 5.00000000000000000000e-01) (49, 4, 5.00000000000000000000e-01) (49, 4, 5.00000000000000000000e-01) (49, 4, 5.00000000000000000000e-01) (49, 4, 5.00000000000000000000e-01) (49, 4, 5.00000000000000000000e-01) (49, 4, 5.00000000000000000000e-01) (49, 4, 5.00000000000000000000e-01) (49, 4, 5.00000000000000000000e-01) (49, 4, 5.00000000000000000000e-01) (49, 4, 5.00000000000000000000e-01) (49, 4, 5.00000000000000000000e-01) (49, 4, 5.00000000000000000000e-01) (49, 4, 5.00000000000000000000e-01) (49, 4, 5.00000000000000000000e-01) (49, 4, 5.00000000000000000000e-01) (49, 4, 5.00000000000000000000e-01) (49, 4, 5.00000000000000000000e-01) (49, 4, 5.00000000000000000000e-01) (49, 4, 5.00000000000000000000e-01) (49, 4, 5.00000000000000000000e-01) (49, 4, 5.00000000000000000000e-01) (49, 4, 5.00000000000000000000e-01) (49, 4, 5.00000000000000000000e-01) (49, 4, 5.00000000000000000000e-01) (49, 4, 5.00000000000000000000e-01) (49, 4, 5.00000000000000000000e-01) (49, 4, 5.00000000000000000000e-01) (49, 4, 5.00000000000000000000e-01) (49, 4, 5.00000000000000000000e-01) (49, 4, 5.00000000000000000000e-01) (49, 4, 5.00000000000000000000e-01) (49, 4, 5.00000000000000000000e-01) (49, 4, 5.00000000000000000000e-01) (49, 4, 5.00000000000000000000e-01) (49, 4, 5.00000000000000000000e-01) (49, 4, 5.00000000000000000000e-01) (49, 4, 5.00000000000000000000e-01) (49, 4, 5.00000000000000000000e-01) (49, 4, 5.00000000000000000000e-01) (49, 4, 5.00000000000000000000e-01) (49, 4, 5.00000000000000000000e-01) (49, 4, 5.00000000000000000000e-01) (49, 4, 5.00000000000000000000e-01) (49, 4, 5.00000000000000000000e-01) (49, 4, 5.00000000000000000000e-01) (49, 4, 5.00000000000000000000e-01) (49, 4, 5.00000000000000000000e-01) (49, 4, 5.00000000000000000000e-01) (49, 4, 5.00000000000000000000e-01) (49, 4, 5.00000000000000000000e-01) (49, 4, 5.00000000000000000000e-01) (49, 4, 5.00000000000000000000e-01) (49, 4, 5.00000000000000000000e-01) (49, 4, 5.00000000000000000000e-01) (49, 4, 5.00000000000000000000e-01) (49, 4, 5.00000000000000000000e-01) (49, 4, 5.00000000000000000000e-01) (49, 4, 5.00000000000000000000e-01) (49, 4, 5.00000000000000000000e-01) (49, 4, 5.00000000000000000000e-01) (49, 4, 5.00000000000000000000e-01) (49, 4, 5.00000000000000000000e-01) (49, 4, 5.00000000000000000000e-01) (49, 4, 5.00000000000000000000e-01) (49, 4, 5.00000000000000000000e-01) (49, 4, 5.00000000000000000000e-01) (49, 4, 5.00000000000000000000e-01) (49, 4, 5.00000000000000000000e-01) (49, 4, 5.00000000000000000000e-01) (49, 4, 5.00000000000000000000e-01) (49, 4, 5.00000000000000000000e-01) (49, 4, 5.00000000000000000000e-01) (49, 4, 5.00000000000000000000e-01) (49, 4, 5.00000000000000000000e-01) (49, 4, 5.00000000000000000000e-01) (49, 4, 5.00000000000000000000e-01) (49, 4, 5.00000000000000000000e-01) (49, 4, 5.00000000000000000000e-01) (49, 4, 5.00000000000000000000e-01) (49, 4, 5.00000000000000000000e-01) (49, 4, 5.00000000000000000000e-01) (49, 4, 5.00000000000000000000e-01) (49, 4, 5.00000000000000000000e-01) (49, 4, 5.00000000000000000000e-01) (49, 4, 5.00000000000000000000e-01) (49, 4, 5.00000000000000000000e-01) (49, 4, 5.00000000000000000000e-01) (49, 4, 5.00000000000000000000e-01) (49, 4, 5.00000000000000000000e-01) (49, 4, 5.00000000000000000000e-01) (49, 4, 5.00000000000000000000e-01) (49, 4, 5.00000000000000000000e-01) (0, 0, 0.00000000000000000000e+00) (97, 4, 5.00000000000000000000e-01) (97, 4, 5.00000000000000000000e-01) (97, 4, 5.00000000000000000000e-01) (0, 0, 0.00000000000000000000e+00) 
connections (connected_to_neuron, weight)=(0, 6.10547102987766265869e-02) (1, -5.47112897038459777832e-02) (2, -1.86118949204683303833e-02) (3, -6.11677542328834533691e-02) (4, 2.20156107097864151001e-02) (5, -3.67596447467803955078e-02) (6, -1.22951582074165344238e-01) (7, -4.14563529193401336670e-02) (8, -9.57041755318641662598e-02) (9, -3.15823294222354888916e-02) (10, -4.42291833460330963135e-02) (11, -6.07980974018573760986e-02) (12, -2.10701704025268554688e-01) (13, -1.31422266364097595215e-01) (14, 6.26205801963806152344e-02) (15, -1.20223179459571838379e-01) (16, 1.03976234793663024902e-01) (17, 3.94744724035263061523e-02) (18, -1.20399668812751770020e-01) (19, -7.10467994213104248047e-02) (20, -3.10259699821472167969e-01) (21, -2.25078895688056945801e-01) (22, -2.17210546135902404785e-01) (23, 2.22125291824340820312e-01) (24, -3.47158089280128479004e-02) (25, 6.85700727626681327820e-03) (26, -1.21125085279345512390e-02) (27, -1.17354266345500946045e-01) (28, -6.06682337820529937744e-02) (29, -9.77620184421539306641e-02) (30, 7.25993961095809936523e-02) (31, 1.23145394027233123779e-01) (32, -3.93322892487049102783e-02) (33, -1.21025135740637779236e-02) (34, 1.28649696707725524902e-01) (35, -6.59380690194666385651e-04) (36, -1.27524808049201965332e-01) (37, 1.14958792924880981445e-01) (38, -9.67773646116256713867e-02) (39, -3.06294788606464862823e-03) (40, -6.29881322383880615234e-02) (41, 2.80793737620115280151e-02) (42, -9.07860174775123596191e-02) (43, 1.48763790726661682129e-01) (44, -2.36241519451141357422e-02) (45, 8.23529902845621109009e-03) (46, -3.07727437466382980347e-02) (47, 2.70221140235662460327e-02) (48, -1.66382110118865966797e+00) (0, -7.83832073211669921875e-02) (1, -1.14264860749244689941e-01) (2, -1.40088066458702087402e-01) (3, -2.19146877527236938477e-01) (4, -1.33558986708521842957e-02) (5, 6.94114118814468383789e-02) (6, -1.08945861458778381348e-01) (7, -8.78013446927070617676e-02) (8, -3.51001441478729248047e-01) (9, -8.38227570056915283203e-02) (10, -2.89023965597152709961e-02) (11, -7.48479515314102172852e-02) (12, -8.66865366697311401367e-02) (13, -7.61241987347602844238e-02) (14, -1.64320871233940124512e-01) (15, -1.05841822922229766846e-01) (16, -1.20558023452758789062e-01) (17, 1.90572300925850868225e-03) (18, 9.60153043270111083984e-02) (19, -2.24038362503051757812e-02) (20, 6.68312013149261474609e-02) (21, 1.27779897302389144897e-02) (22, -7.02447891235351562500e-02) (23, -6.13651722669601440430e-02) (24, 5.14617143198847770691e-03) (25, 7.26482793688774108887e-02) (26, 2.58103143423795700073e-02) (27, -1.20913259685039520264e-01) (28, -1.20072640478610992432e-01) (29, 5.21975867450237274170e-02) (30, -6.53034597635269165039e-02) (31, 1.27991601824760437012e-01) (32, -1.95349585264921188354e-02) (33, 7.29091018438339233398e-02) (34, 1.20502144098281860352e-01) (35, 1.01567789912223815918e-01) (36, -8.19703340530395507812e-02) (37, -1.19991771876811981201e-01) (38, 1.27297610044479370117e-01) (39, -1.75479799509048461914e-01) (40, 8.95414873957633972168e-02) (41, 1.96254745125770568848e-01) (42, 7.10394559428095817566e-03) (43, -8.73477431014180183411e-04) (44, -8.42436775565147399902e-02) (45, -1.18274956941604614258e-01) (46, -9.34022367000579833984e-02) (47, -2.47737973928451538086e-01) (48, -1.64688587188720703125e+00) (0, -1.62997439503669738770e-01) (1, -2.15087175369262695312e-01) (2, -4.61145043373107910156e-01) (3, -4.88824516534805297852e-01) (4, -4.13273602724075317383e-01) (5, -1.05953961610794067383e-01) (6, -3.38111519813537597656e-01) (7, -3.65793287754058837891e-01) (8, 6.30057603120803833008e-02) (9, -7.74605274200439453125e-02) (10, 1.25099405646324157715e-01) (11, -1.11189194023609161377e-01) (12, -7.88160443305969238281e-01) (13, -5.86207926273345947266e-01) (14, -4.27943229675292968750e-01) (15, -5.51992774009704589844e-01) (16, 3.24557095766067504883e-01) (17, -1.03824376128613948822e-03) (18, 4.88683842122554779053e-02) (19, -2.33188748359680175781e-01) (20, -5.54601967334747314453e-01) (21, -2.91860222816467285156e-01) (22, -3.77509832382202148438e-01) (23, -3.98716062307357788086e-01) (24, 5.83054840564727783203e-01) (25, 3.04318189620971679688e-01) (26, 4.61268305778503417969e-01) (27, 2.81590998172760009766e-01) (28, 1.30248010158538818359e-01) (29, -3.93565744161605834961e-01) (30, -5.99354989826679229736e-02) (31, -4.72849100828170776367e-01) (32, -5.26442646980285644531e-01) (33, 1.50993734598159790039e-01) (34, 2.76258915662765502930e-01) (35, 2.30898886919021606445e-01) (36, -3.57779771089553833008e-01) (37, 7.74505287408828735352e-02) (38, -2.36534938216209411621e-01) (39, -3.37278276681900024414e-01) (40, -5.82601726055145263672e-01) (41, -2.04772561788558959961e-01) (42, 1.48268938064575195312e-01) (43, 4.09814715385437011719e-01) (44, -2.45695769786834716797e-01) (45, 2.25275710225105285645e-01) (46, -8.28595682978630065918e-02) (47, -1.78234562277793884277e-01) (48, -1.77563869953155517578e+00) (0, -3.82091104984283447266e-02) (1, -1.05265207588672637939e-01) (2, -8.29618871212005615234e-02) (3, -1.59685075283050537109e-01) (4, -2.36327528953552246094e-01) (5, -2.10236951708793640137e-01) (6, -1.34969681501388549805e-01) (7, 2.08160821348428726196e-02) (8, -1.88393786549568176270e-01) (9, -2.93810367584228515625e-01) (10, -1.94124013185501098633e-01) (11, -1.73909470438957214355e-01) (12, -2.41252630949020385742e-01) (13, -1.40556618571281433105e-01) (14, -3.09539143927395343781e-03) (15, -4.68620881438255310059e-02) (16, -2.54541754722595214844e-01) (17, -1.21254533529281616211e-01) (18, -2.21846967935562133789e-01) (19, -1.94905206561088562012e-01) (20, -2.79359370470046997070e-01) (21, -1.57770499587059020996e-01) (22, -2.80565172433853149414e-01) (23, -1.83381840586662292480e-01) (24, -2.38284543156623840332e-01) (25, -2.41290017962455749512e-01) (26, -2.25440502166748046875e-01) (27, -2.76561349630355834961e-01) (28, -3.81041228771209716797e-01) (29, -2.93352544307708740234e-01) (30, -2.98696249723434448242e-01) (31, -1.68322980403900146484e-01) (32, 1.22974038124084472656e-01) (33, -2.44285032153129577637e-01) (34, -2.69483447074890136719e-01) (35, -3.99189263582229614258e-01) (36, -3.11738610267639160156e-01) (37, -2.27957382798194885254e-01) (38, -2.53605842590332031250e-01) (39, -1.08620129525661468506e-01) (40, 1.48429617285728454590e-01) (41, -1.21474608778953552246e-01) (42, 7.80536904931068420410e-02) (43, -5.05718708038330078125e-01) (44, -2.99591481685638427734e-01) (45, -1.75662636756896972656e-01) (46, -1.19406230747699737549e-01) (47, -2.00599193572998046875e-01) (48, -1.36242616176605224609e+00) (0, -2.39218309521675109863e-01) (1, -3.57302799820899963379e-02) (2, 1.16979584097862243652e-01) (3, -1.98500856757164001465e-01) (4, 2.68871039152145385742e-01) (5, 1.17788814008235931396e-01) (6, -1.00111581385135650635e-01) (7, 5.66494911909103393555e-02) (8, -4.33454841375350952148e-01) (9, 4.22662138938903808594e-01) (10, 2.96559005975723266602e-01) (11, 1.53121560811996459961e-01) (12, -3.58634054660797119141e-01) (13, -4.61113780736923217773e-01) (14, -4.26988124847412109375e-01) (15, -3.99855315685272216797e-01) (16, 4.70736443996429443359e-01) (17, 4.80788081884384155273e-01) (18, 3.00477296113967895508e-01) (19, 1.88963145017623901367e-01) (20, 6.34930953383445739746e-02) (21, 1.40771538019180297852e-01) (22, 2.08911910653114318848e-01) (23, 5.49763441085815429688e-01) (24, 4.56259995698928833008e-01) (25, 5.41008949279785156250e-01) (26, 3.64792585372924804688e-01) (27, 2.69390583038330078125e-01) (28, -2.13843643665313720703e-01) (29, 4.90335702896118164062e-01) (30, 6.15708768367767333984e-01) (31, 8.14823508262634277344e-01) (32, 3.06757241487503051758e-02) (33, 8.79418373107910156250e-01) (34, 9.53166186809539794922e-01) (35, 4.79174315929412841797e-01) (36, -3.64132262766361236572e-02) (37, 4.97417658567428588867e-01) (38, 4.40811276435852050781e-01) (39, 1.64444465190172195435e-02) (40, -6.16126544773578643799e-02) (41, 4.39204692840576171875e-01) (42, 5.26416413486003875732e-02) (43, 8.29605221748352050781e-01) (44, 2.50250965356826782227e-01) (45, 2.06624448299407958984e-01) (46, -1.20451658964157104492e-01) (47, -1.16074815392494201660e-01) (48, -1.46113967895507812500e+00) (0, -2.26678445935249328613e-01) (1, -1.42639860510826110840e-01) (2, -1.54935330152511596680e-01) (3, -1.73403128981590270996e-01) (4, -1.47850707173347473145e-01) (5, -6.31195157766342163086e-02) (6, -5.80471828579902648926e-02) (7, 6.25099018216133117676e-02) (8, -3.16330701112747192383e-01) (9, -1.36975169181823730469e-01) (10, -1.37750748544931411743e-02) (11, 6.11085351556539535522e-03) (12, -3.04750233888626098633e-01) (13, -3.90376113355159759521e-02) (14, -1.97412624955177307129e-01) (15, 1.55554309487342834473e-01) (16, -1.90069258213043212891e-01) (17, -1.03587903082370758057e-01) (18, -3.72542925179004669189e-02) (19, -9.75526124238967895508e-02) (20, -6.64742216467857360840e-02) (21, 3.07794846594333648682e-02) (22, 1.43336519598960876465e-01) (23, -4.65169660747051239014e-02) (24, -2.49638229608535766602e-01) (25, -1.60643830895423889160e-01) (26, -2.34256386756896972656e-01) (27, -1.26558884978294372559e-01) (28, -1.23957641422748565674e-01) (29, 8.15133377909660339355e-02) (30, -4.54994030296802520752e-02) (31, 1.29773184657096862793e-01) (32, 6.41368934884667396545e-03) (33, -9.67400893568992614746e-02) (34, -1.34762465953826904297e-01) (35, 1.32352694869041442871e-01) (36, -1.23133607208728790283e-01) (37, -7.25122354924678802490e-03) (38, 1.40995562076568603516e-01) (39, -1.90661311149597167969e-01) (40, 4.57635708153247833252e-02) (41, 1.43165633082389831543e-01) (42, 2.01760187745094299316e-01) (43, -1.13376915454864501953e-01) (44, -1.65910497307777404785e-01) (45, -1.62392407655715942383e-01) (46, -9.63948294520378112793e-02) (47, -2.59891033172607421875e-01) (48, -1.65437960624694824219e+00) (0, -8.75354185700416564941e-02) (1, 5.14264628291130065918e-02) (2, 8.62064361572265625000e-02) (3, -2.62819647789001464844e-01) (4, 1.38743281364440917969e-01) (5, 1.30629958584904670715e-02) (6, -2.19555005431175231934e-01) (7, -7.57552087306976318359e-02) (8, -1.70857429504394531250e-01) (9, 3.84544998407363891602e-01) (10, 1.89216718077659606934e-01) (11, 6.21168427169322967529e-02) (12, -4.02295023202896118164e-01) (13, -4.49232220649719238281e-01) (14, -1.96888312697410583496e-01) (15, -2.94615387916564941406e-01) (16, 3.49326670169830322266e-01) (17, 4.77436244487762451172e-01) (18, 5.62355294823646545410e-02) (19, 5.67830167710781097412e-02) (20, -1.08622625470161437988e-01) (21, 5.42053543031215667725e-02) (22, 1.86013922095298767090e-01) (23, 4.11441594362258911133e-01) (24, 4.41242367029190063477e-01) (25, 3.09418976306915283203e-01) (26, 4.42167937755584716797e-01) (27, 1.55574232339859008789e-01) (28, -1.15277789533138275146e-01) (29, 2.33664810657501220703e-01) (30, 4.78044658899307250977e-01) (31, 5.45558571815490722656e-01) (32, -2.22938925027847290039e-01) (33, 5.00347912311553955078e-01) (34, 5.93820035457611083984e-01) (35, 3.67745041847229003906e-01) (36, 5.03949485719203948975e-02) (37, 4.08364802598953247070e-01) (38, 3.82093787193298339844e-01) (39, 1.44059345126152038574e-01) (40, -2.09251701831817626953e-01) (41, 1.27981320023536682129e-01) (42, -9.43771004676818847656e-02) (43, 6.08417570590972900391e-01) (44, 2.72653281688690185547e-01) (45, 2.42124766111373901367e-01) (46, -1.00926801562309265137e-01) (47, -7.84605294466018676758e-02) (48, -1.60676300525665283203e+00) (0, -7.38242566585540771484e-02) (1, -1.33411362767219543457e-01) (2, -1.50643497705459594727e-01) (3, -1.69687122106552124023e-01) (4, -3.04598718881607055664e-01) (5, -8.92790555953979492188e-02) (6, -1.62389762699604034424e-02) (7, 4.08215168863534927368e-03) (8, -1.27067074179649353027e-01) (9, -1.03468984365463256836e-01) (10, -1.27164945006370544434e-02) (11, -1.32669150829315185547e-01) (12, -3.13858747482299804688e-01) (13, -7.75139629840850830078e-02) (14, -1.09801262617111206055e-01) (15, 5.52887320518493652344e-02) (16, -1.80155009031295776367e-01) (17, -5.96996434032917022705e-02) (18, -1.43175095319747924805e-01) (19, -1.86346098780632019043e-01) (20, -2.32348859310150146484e-01) (21, -2.63773977756500244141e-01) (22, -1.79115682840347290039e-01) (23, -2.53501564264297485352e-01) (24, -1.81732270866632461548e-02) (25, -1.80063713341951370239e-02) (26, -2.31323465704917907715e-01) (27, -2.10523039102554321289e-01) (28, -3.58398437500000000000e-01) (29, -2.24492147564888000488e-01) (30, -3.37371438741683959961e-01) (31, -2.50790596008300781250e-01) (32, 8.39961245656013488770e-02) (33, -2.24751278758049011230e-01) (34, -2.57593691349029541016e-01) (35, -2.92857795953750610352e-01) (36, -2.52613067626953125000e-01) (37, -2.85257220268249511719e-01) (38, -2.21148177981376647949e-01) (39, -3.43432016670703887939e-02) (40, 4.79419045150279998779e-02) (41, -1.50531902909278869629e-01) (42, -1.03219270706176757812e-01) (43, -3.53038161993026733398e-01) (44, -4.28808301687240600586e-01) (45, -2.53242671489715576172e-01) (46, -1.75141379237174987793e-01) (47, -1.83974444866180419922e-01) (48, -1.44251072406768798828e+00) (0, -2.58920844644308090210e-02) (1, -1.85579419136047363281e-01) (2, -1.76046416163444519043e-01) (3, -2.28471830487251281738e-01) (4, -2.65377908945083618164e-01) (5, -6.76005780696868896484e-02) (6, -4.57862801849842071533e-02) (7, 1.21756121516227722168e-02) (8, -1.90019384026527404785e-01) (9, -1.90359756350517272949e-01) (10, -6.85153231024742126465e-02) (11, -1.16688922047615051270e-01) (12, -2.55785226821899414062e-01) (13, -1.42710670828819274902e-01) (14, -1.28970667719841003418e-01) (15, 9.05246660113334655762e-02) (16, -2.06715449690818786621e-01) (17, -2.69968241453170776367e-01) (18, -7.11235553026199340820e-02) (19, -1.89542114734649658203e-01) (20, -1.26529917120933532715e-01) (21, -1.74623474478721618652e-01) (22, -1.60001322627067565918e-01) (23, -1.08181297779083251953e-01) (24, -2.62542605400085449219e-01) (25, -2.20280781388282775879e-01) (26, -1.80606141686439514160e-01) (27, -2.77611047029495239258e-01) (28, -2.65392631292343139648e-01) (29, -2.23367929458618164062e-01) (30, -1.45550370216369628906e-01) (31, -1.18671774864196777344e-01) (32, -2.36575794406235218048e-03) (33, -1.02581284940242767334e-01) (34, -2.59631633758544921875e-01) (35, -2.16460227966308593750e-01) (36, -1.78723871707916259766e-01) (37, -2.66553878784179687500e-01) (38, -1.14913493394851684570e-01) (39, -3.78840416669845581055e-02) (40, 8.98851454257965087891e-02) (41, 2.49145994894206523895e-03) (42, -4.86448891460895538330e-02) (43, -4.49480831623077392578e-01) (44, -3.52172434329986572266e-01) (45, -1.58750027418136596680e-01) (46, -1.68740436434745788574e-01) (47, -8.29165354371070861816e-02) (48, -1.45264828205108642578e+00) (0, -1.38976648449897766113e-01) (1, -1.79233968257904052734e-01) (2, -1.14339880645275115967e-01) (3, -1.26638561487197875977e-01) (4, -4.09665852785110473633e-01) (5, -1.60286962985992431641e-01) (6, -1.28858894109725952148e-01) (7, 5.70587962865829467773e-02) (8, -3.10745649039745330811e-02) (9, -1.29201382398605346680e-01) (10, -9.23471599817276000977e-02) (11, -1.78983464837074279785e-01) (12, -4.85993593931198120117e-01) (13, -2.24936902523040771484e-01) (14, -2.54164814949035644531e-01) (15, 1.28876477479934692383e-01) (16, -3.16216200590133666992e-02) (17, 2.53603532910346984863e-02) (18, 2.51504480838775634766e-02) (19, -3.48660409450531005859e-01) (20, -3.65659058094024658203e-01) (21, -3.50189536809921264648e-01) (22, -2.93655306100845336914e-01) (23, -5.40581583976745605469e-01) (24, 4.83176112174987792969e-02) (25, -7.31028988957405090332e-02) (26, -1.22241720557212829590e-01) (27, -3.90879631042480468750e-01) (28, -4.21877205371856689453e-01) (29, -3.75801324844360351562e-01) (30, -5.65308928489685058594e-01) (31, -6.31240189075469970703e-01) (32, 2.83182293176651000977e-01) (33, -1.78405702114105224609e-01) (34, -2.06423476338386535645e-01) (35, -5.21937847137451171875e-01) (36, -6.74728333950042724609e-01) (37, -4.79078531265258789062e-01) (38, -3.92996400594711303711e-01) (39, -2.16506749391555786133e-01) (40, 5.48672527074813842773e-02) (41, -1.57333850860595703125e-01) (42, -2.18969404697418212891e-01) (43, -6.60196721553802490234e-01) (44, -7.67439544200897216797e-01) (45, -3.42643946409225463867e-01) (46, -1.81377023458480834961e-01) (47, -1.28214240074157714844e-01) (48, -1.27423489093780517578e+00) (0, 3.13854590058326721191e-02) (1, 2.75710783898830413818e-02) (2, 6.00057132542133331299e-02) (3, 9.40826162695884704590e-02) (4, -1.42002388834953308105e-01) (5, -5.48035576939582824707e-02) (6, -1.45716875791549682617e-01) (7, -2.16050297021865844727e-01) (8, 4.60417903959751129150e-02) (9, 1.88833044376224279404e-03) (10, 4.79089766740798950195e-02) (11, -1.54218047857284545898e-01) (12, -1.67590437922626733780e-03) (13, -1.16719461977481842041e-01) (14, -2.10680486634373664856e-03) (15, -3.07525575160980224609e-01) (16, 2.54966229200363159180e-01) (17, 1.34378988295793533325e-02) (18, -8.18201899528503417969e-03) (19, -3.28504405915737152100e-02) (20, -4.97496515512466430664e-01) (21, -4.46944385766983032227e-02) (22, -1.00459195673465728760e-01) (23, 2.90995627641677856445e-01) (24, 4.20209988951683044434e-02) (25, 6.15772150922566652298e-04) (26, 1.92294284701347351074e-01) (27, 1.14206941798329353333e-02) (28, 1.15211876109242439270e-02) (29, -1.02754294872283935547e-01) (30, 1.83199897408485412598e-01) (31, 1.19972079992294311523e-01) (32, -9.62385386228561401367e-02) (33, -1.69151246547698974609e-01) (34, 1.09786845743656158447e-01) (35, -4.44758273661136627197e-02) (36, -2.77774155139923095703e-01) (37, 1.09043531119823455811e-01) (38, -5.48964887857437133789e-02) (39, 6.88566714525222778320e-02) (40, -2.40278854966163635254e-01) (41, -1.67056292295455932617e-01) (42, -1.72428250312805175781e-01) (43, -7.34388083219528198242e-02) (44, 1.74894109368324279785e-02) (45, 6.19550384581089019775e-02) (46, 4.93118166923522949219e-02) (47, 9.83487740159034729004e-02) (48, -1.72532308101654052734e+00) (0, -8.64212512969970703125e-02) (1, -1.39649063348770141602e-01) (2, -1.95304468274116516113e-01) (3, -2.33793839812278747559e-01) (4, -2.62305587530136108398e-01) (5, -4.43588718771934509277e-02) (6, -1.64401665329933166504e-01) (7, -1.19512915611267089844e-01) (8, -5.11362478137016296387e-02) (9, -4.62785661220550537109e-02) (10, -8.08291509747505187988e-02) (11, -2.09998026490211486816e-01) (12, -2.82871305942535400391e-01) (13, -2.23490178585052490234e-01) (14, -1.87440440058708190918e-01) (15, -4.91891503334045410156e-02) (16, 5.24763315916061401367e-02) (17, -1.62049697246402502060e-03) (18, -1.26760944724082946777e-01) (19, -3.20157259702682495117e-01) (20, -2.54360705614089965820e-01) (21, -2.52319723367691040039e-01) (22, -1.74085050821304321289e-01) (23, -2.09249988198280334473e-01) (24, 2.01995506882667541504e-01) (25, -4.77141048759222030640e-03) (26, 1.03164069354534149170e-01) (27, -9.40555408596992492676e-02) (28, -1.85694575309753417969e-01) (29, -1.94447815418243408203e-01) (30, -1.70897003263235092163e-02) (31, -2.79791206121444702148e-01) (32, -1.79990395903587341309e-01) (33, 2.85388436168432235718e-02) (34, 8.08642990887165069580e-03) (35, -1.38480067253112792969e-01) (36, -3.10684800148010253906e-01) (37, -1.05002969503402709961e-01) (38, -1.28193765878677368164e-01) (39, -9.38263908028602600098e-02) (40, -1.54495358467102050781e-01) (41, -1.21314890682697296143e-01) (42, 7.19893770292401313782e-03) (43, 2.66105588525533676147e-02) (44, -1.06769658625125885010e-01) (45, 2.27070655673742294312e-02) (46, -5.73630109429359436035e-02) (47, -1.25889867544174194336e-01) (48, -1.59134173393249511719e+00) (0, -1.29622846841812133789e-01) (1, -1.25338554382324218750e-01) (2, -1.01037114858627319336e-01) (3, -2.37347409129142761230e-01) (4, -1.45402953028678894043e-01) (5, 1.81457716971635818481e-02) (6, -1.97038546204566955566e-01) (7, -1.96167066693305969238e-01) (8, 7.42547363042831420898e-02) (9, -4.48655858635902404785e-02) (10, -7.85551127046346664429e-03) (11, -1.41835734248161315918e-01) (12, -2.71277606487274169922e-01) (13, -1.50755822658538818359e-01) (14, -1.19469031691551208496e-01) (15, -1.37274622917175292969e-01) (16, 1.27490311861038208008e-01) (17, 7.76277855038642883301e-02) (18, -1.58055245876312255859e-01) (19, -3.00393253564834594727e-01) (20, -2.83036202192306518555e-01) (21, -2.09532827138900756836e-01) (22, -6.37795850634574890137e-02) (23, -3.46705899573862552643e-03) (24, 1.07933573424816131592e-01) (25, 3.64358187653124332428e-03) (26, 1.86246976256370544434e-01) (27, -2.32017412781715393066e-01) (28, -2.41552382707595825195e-01) (29, -3.24127346277236938477e-01) (30, -3.10919731855392456055e-02) (31, -1.55315488576889038086e-01) (32, -8.45398008823394775391e-02) (33, 2.70815612748265266418e-03) (34, -7.86708369851112365723e-02) (35, -3.42285968363285064697e-02) (36, -2.41442009806632995605e-01) (37, -2.04795286059379577637e-01) (38, -3.23635786771774291992e-01) (39, -1.80921971797943115234e-01) (40, -2.79803693294525146484e-01) (41, -2.28247679769992828369e-02) (42, -6.55085444450378417969e-02) (43, -5.42471092194318771362e-03) (44, -1.21407344937324523926e-01) (45, 1.06170669198036193848e-01) (46, -1.78140252828598022461e-01) (47, -1.67739406228065490723e-01) (48, -1.59233093261718750000e+00) (0, 1.37080579996109008789e-01) (1, 3.13025191426277160645e-02) (2, 7.32089355587959289551e-02) (3, 5.83928190171718597412e-02) (4, -8.34715187549591064453e-01) (5, -6.01946413516998291016e-01) (6, -4.69676345586776733398e-01) (7, -1.54798969626426696777e-01) (8, 4.48092550039291381836e-01) (9, -4.43511903285980224609e-01) (10, -3.57638835906982421875e-01) (11, -3.40129643678665161133e-01) (12, -4.66263353824615478516e-01) (13, -1.94551870226860046387e-01) (14, -4.84273992478847503662e-02) (15, -1.45202782005071640015e-02) (16, -4.40667480230331420898e-01) (17, -7.34963297843933105469e-01) (18, -5.93768477439880371094e-01) (19, -4.05150979757308959961e-01) (20, -7.61735141277313232422e-01) (21, -4.19145286083221435547e-01) (22, -3.34007292985916137695e-01) (23, -6.52377009391784667969e-01) (24, -5.01366198062896728516e-01) (25, -7.14477658271789550781e-01) (26, -9.42527234554290771484e-01) (27, -7.88852632045745849609e-01) (28, -4.18780505657196044922e-01) (29, -6.60543680191040039062e-01) (30, -6.62683010101318359375e-01) (31, -5.05276918411254882812e-01) (32, -7.14978694915771484375e-01) (33, -1.05076837539672851562e+00) (34, -1.06944692134857177734e+00) (35, -1.33982706069946289062e+00) (36, -5.55035173892974853516e-01) (37, -4.26241159439086914062e-01) (38, -2.11860090494155883789e-01) (39, -2.86194771528244018555e-01) (40, -9.00749415159225463867e-02) (41, -7.16812312602996826172e-01) (42, -1.12539798021316528320e-01) (43, -1.80318892002105712891e+00) (44, -5.84132134914398193359e-01) (45, -4.15969133377075195312e-01) (46, 1.97728410363197326660e-01) (47, 1.02116823196411132812e-01) (48, -1.88574805855751037598e-01) (0, -1.99552893638610839844e-01) (1, -1.86616331338882446289e-02) (2, 1.45307898521423339844e-01) (3, 7.56895616650581359863e-02) (4, -6.25754654407501220703e-01) (5, -6.79271161556243896484e-01) (6, -1.80104181170463562012e-01) (7, 1.46708324551582336426e-01) (8, 1.83642223477363586426e-01) (9, -3.69568198919296264648e-01) (10, 2.28304546326398849487e-02) (11, -4.87476885318756103516e-02) (12, -7.19726204872131347656e-01) (13, -6.04329854249954223633e-02) (14, -4.86729480326175689697e-02) (15, 1.12873561680316925049e-01) (16, -4.26214605569839477539e-01) (17, -2.63072401285171508789e-01) (18, -1.52909517288208007812e-01) (19, -4.12306219339370727539e-01) (20, -5.34923493862152099609e-01) (21, -3.53200674057006835938e-01) (22, -2.53924936056137084961e-01) (23, -7.48655974864959716797e-01) (24, -3.86376410722732543945e-01) (25, -4.02562052011489868164e-01) (26, -6.25584304332733154297e-01) (27, -6.12911105155944824219e-01) (28, -3.89747679233551025391e-01) (29, -3.57039004564285278320e-01) (30, -7.41411268711090087891e-01) (31, -3.19906741380691528320e-01) (32, -1.91027477383613586426e-01) (33, -6.16353571414947509766e-01) (34, -7.70376622676849365234e-01) (35, -9.40248250961303710938e-01) (36, -5.23812115192413330078e-01) (37, -4.24679040908813476562e-01) (38, 1.29983231425285339355e-01) (39, -1.53122618794441223145e-02) (40, 9.08956751227378845215e-02) (41, -3.79185855388641357422e-01) (42, 4.05674092471599578857e-02) (43, -1.43844032287597656250e+00) (44, -6.05668902397155761719e-01) (45, -3.79249215126037597656e-01) (46, 1.85484409332275390625e-01) (47, -1.31719186902046203613e-01) (48, -6.14838600158691406250e-01) (0, -9.42364633083343505859e-02) (1, -1.48355051875114440918e-01) (2, -7.42461830377578735352e-02) (3, -1.58712819218635559082e-01) (4, -1.57512500882148742676e-01) (5, -5.26522845029830932617e-03) (6, -3.57809402048587799072e-02) (7, -5.18445251509547233582e-03) (8, -1.61117970943450927734e-01) (9, -1.22148796916007995605e-01) (10, -9.34812799096107482910e-02) (11, -1.48666515946388244629e-01) (12, -1.55639171600341796875e-01) (13, -1.58852040767669677734e-01) (14, 7.76200508698821067810e-03) (15, -1.66783079504966735840e-01) (16, -4.00253236293792724609e-02) (17, -7.28327706456184387207e-02) (18, -3.42886298894882202148e-02) (19, -1.76582470536231994629e-01) (20, -9.62289273738861083984e-02) (21, -1.43975377082824707031e-01) (22, -5.03902733325958251953e-02) (23, -3.10799647122621536255e-02) (24, -1.65836915373802185059e-01) (25, -1.82896971702575683594e-01) (26, -9.64864194393157958984e-02) (27, -4.31694127619266510010e-02) (28, -1.81889161467552185059e-01) (29, -6.28940388560295104980e-02) (30, 1.95735674351453781128e-02) (31, 1.35187268257141113281e-01) (32, 3.79471890628337860107e-02) (33, -1.19598932564258575439e-01) (34, -8.31435322761535644531e-02) (35, -1.84892326593399047852e-01) (36, -2.30815216898918151855e-01) (37, -1.43119946122169494629e-01) (38, -3.23124192655086517334e-02) (39, -1.14819608628749847412e-01) (40, 5.07749989628791809082e-02) (41, 3.23974154889583587646e-02) (42, -3.06777600198984146118e-02) (43, -1.24671578407287597656e-01) (44, -2.09258854389190673828e-01) (45, -1.26937255263328552246e-01) (46, -9.10606309771537780762e-02) (47, -2.03738845884799957275e-02) (48, -1.61859166622161865234e+00) (0, -1.06689989566802978516e-01) (1, -1.30234271287918090820e-01) (2, -9.63001176714897155762e-02) (3, -1.45305767655372619629e-01) (4, -2.13027298450469970703e-01) (5, 5.10929971933364868164e-02) (6, -4.55271191895008087158e-02) (7, -2.15203508734703063965e-01) (8, -2.63186208903789520264e-02) (9, -4.98222187161445617676e-02) (10, -5.80402761697769165039e-02) (11, -2.34237328171730041504e-01) (12, -1.71255826950073242188e-01) (13, -1.09721571207046508789e-01) (14, 3.07881087064743041992e-02) (15, -8.46348479390144348145e-02) (16, -5.80768138170242309570e-02) (17, -1.88879144843667745590e-03) (18, -1.42104579135775566101e-02) (19, -2.74465680122375488281e-01) (20, -3.18859010934829711914e-01) (21, -2.28839933872222900391e-01) (22, -6.75118714570999145508e-02) (23, -8.51536020636558532715e-02) (24, 5.76518774032592773438e-02) (25, -9.99310985207557678223e-02) (26, -4.85362000763416290283e-02) (27, -5.15586771070957183838e-02) (28, -1.33640050888061523438e-01) (29, -2.62164354324340820312e-01) (30, 6.24634623527526855469e-02) (31, -6.52272067964076995850e-03) (32, -1.14266954362392425537e-01) (33, -5.59246651828289031982e-02) (34, -2.84537281841039657593e-02) (35, -1.68334349989891052246e-01) (36, -1.93132981657981872559e-01) (37, -1.18474848568439483643e-01) (38, -1.49726048111915588379e-01) (39, -1.50758013129234313965e-01) (40, -1.85664281249046325684e-01) (41, -1.11582092940807342529e-01) (42, -1.65028005838394165039e-01) (43, -9.88445132970809936523e-02) (44, -2.18915373086929321289e-01) (45, 1.07186203822493553162e-02) (46, -9.37479063868522644043e-02) (47, -1.33474141359329223633e-01) (48, -1.55875563621520996094e+00) (0, 1.10925681889057159424e-01) (1, -7.57576301693916320801e-02) (2, 3.91568690538406372070e-02) (3, 1.51866003870964050293e-01) (4, -3.25389117002487182617e-01) (5, -2.63665944337844848633e-01) (6, -2.05722883343696594238e-01) (7, -2.49848127365112304688e-01) (8, -1.74662284553050994873e-02) (9, -3.27950179576873779297e-01) (10, -2.47079297900199890137e-01) (11, -3.16680788993835449219e-01) (12, 3.23105491697788238525e-02) (13, -1.24682307243347167969e-01) (14, 9.28560420870780944824e-02) (15, -2.85499036312103271484e-01) (16, -1.78837046027183532715e-01) (17, -5.52852809429168701172e-01) (18, -1.70561388134956359863e-01) (19, -3.13134193420410156250e-01) (20, -3.73167484998703002930e-01) (21, -8.18340182304382324219e-02) (22, -6.06388226151466369629e-02) (23, -8.61219018697738647461e-02) (24, -3.48977625370025634766e-01) (25, -4.45252567529678344727e-01) (26, -4.21415239572525024414e-01) (27, -3.64019334316253662109e-01) (28, -3.35462689399719238281e-01) (29, -4.56631511449813842773e-01) (30, -1.01884461939334869385e-01) (31, -1.67504981160163879395e-01) (32, -1.80129408836364746094e-01) (33, -5.79640209674835205078e-01) (34, -3.95386278629302978516e-01) (35, -5.12469828128814697266e-01) (36, -4.66569751501083374023e-01) (37, -1.81632131338119506836e-01) (38, -3.80467176437377929688e-01) (39, -3.25243473052978515625e-02) (40, -9.22239348292350769043e-02) (41, -3.62554579973220825195e-01) (42, -2.37776651978492736816e-01) (43, -5.17612040042877197266e-01) (44, -4.23210769891738891602e-01) (45, -3.15788567066192626953e-01) (46, -9.34368818998336791992e-02) (47, 9.30457934737205505371e-02) (48, -1.25388956069946289062e+00) (0, -8.95364731550216674805e-02) (1, -1.32428392767906188965e-01) (2, -9.27293002605438232422e-02) (3, -7.97846093773841857910e-02) (4, -3.03064107894897460938e-01) (5, -1.00924827158451080322e-01) (6, -5.01455478370189666748e-02) (7, 9.91344731301069259644e-03) (8, -2.42468148469924926758e-01) (9, -2.38727837800979614258e-01) (10, -1.11715853214263916016e-01) (11, -1.21021553874015808105e-01) (12, -4.87806141376495361328e-01) (13, 7.59142078459262847900e-03) (14, -5.66927418112754821777e-02) (15, 4.05062995851039886475e-02) (16, -3.46537292003631591797e-01) (17, -2.88936167955398559570e-01) (18, 3.42776700854301452637e-02) (19, -1.50903016328811645508e-01) (20, -1.50963477790355682373e-02) (21, -5.75740709900856018066e-02) (22, 6.72271056100726127625e-03) (23, -1.30083831027150154114e-02) (24, -3.32338690757751464844e-01) (25, -1.53255939483642578125e-01) (26, -2.09739133715629577637e-01) (27, -7.16467648744583129883e-02) (28, -2.50994533300399780273e-01) (29, 6.57210648059844970703e-02) (30, 1.28126129508018493652e-01) (31, 3.22761148214340209961e-01) (32, -2.54656206816434860229e-02) (33, -1.22106626629829406738e-01) (34, 1.92616805434226989746e-02) (35, 9.69341769814491271973e-02) (36, -3.21733392775058746338e-02) (37, -2.76991352438926696777e-02) (38, 3.43394935131072998047e-01) (39, -3.76490280032157897949e-02) (40, 1.57915502786636352539e-01) (41, 1.01495750248432159424e-01) (42, 2.66138613224029541016e-01) (43, -1.91720291972160339355e-01) (44, -1.81515663862228393555e-01) (45, -4.38519529998302459717e-02) (46, 1.89872235059738159180e-02) (47, -7.34623819589614868164e-02) (48, -1.75771617889404296875e+00) (0, -1.45374760031700134277e-01) (1, -6.30234554409980773926e-02) (2, -1.62024393677711486816e-01) (3, -1.44057705998420715332e-01) (4, -3.88833373785018920898e-01) (5, -3.07329177856445312500e-01) (6, -1.67772114276885986328e-01) (7, 4.86896596848964691162e-02) (8, -1.58889278769493103027e-01) (9, -3.40584307909011840820e-01) (10, -7.44981020689010620117e-02) (11, -1.18230439722537994385e-01) (12, -4.61815387010574340820e-01) (13, -1.31560668349266052246e-01) (14, 7.92041569948196411133e-02) (15, -5.55425472557544708252e-02) (16, -3.62458556890487670898e-01) (17, -4.04149174690246582031e-01) (18, -2.18838870525360107422e-01) (19, -2.47030317783355712891e-01) (20, -3.12937408685684204102e-01) (21, -1.24077372252941131592e-01) (22, -7.49242603778839111328e-02) (23, 3.22805270552635192871e-02) (24, -3.64633530378341674805e-01) (25, -3.26120406389236450195e-01) (26, -3.62552404403686523438e-01) (27, -3.71639341115951538086e-01) (28, -3.40721100568771362305e-01) (29, -2.72411197423934936523e-01) (30, -1.06554873287677764893e-01) (31, 4.57855872809886932373e-02) (32, -2.11919516324996948242e-01) (33, -3.48452121019363403320e-01) (34, -3.57802063226699829102e-01) (35, -4.24191236495971679688e-01) (36, -2.96421229839324951172e-01) (37, -8.78253132104873657227e-02) (38, -1.39361871406435966492e-02) (39, -1.14202909171581268311e-01) (40, -4.13047447800636291504e-02) (41, -2.97192543745040893555e-01) (42, 6.34843260049819946289e-02) (43, -6.35504543781280517578e-01) (44, -2.16675952076911926270e-01) (45, -1.33288413286209106445e-01) (46, 2.50153299421072006226e-02) (47, -9.06837955117225646973e-02) (48, -1.45892405509948730469e+00) (0, 1.19640015065670013428e-01) (1, -6.42367824912071228027e-02) (2, -2.99153119325637817383e-01) (3, -4.41091321408748626709e-02) (4, -5.15358150005340576172e-01) (5, -9.14384350180625915527e-02) (6, -1.17352619767189025879e-01) (7, -1.06642395257949829102e-01) (8, 6.89163729548454284668e-02) (9, -2.81610727310180664062e-01) (10, -2.12315112352371215820e-01) (11, -2.88399964570999145508e-01) (12, -2.08240181207656860352e-01) (13, -1.23663969337940216064e-01) (14, 6.06354102492332458496e-02) (15, -4.96410243213176727295e-02) (16, -1.83245539665222167969e-01) (17, -4.37289595603942871094e-01) (18, -3.50218266248703002930e-01) (19, -4.10249739885330200195e-01) (20, -4.70307677984237670898e-01) (21, -3.76496642827987670898e-01) (22, -2.55237370729446411133e-01) (23, -4.71725583076477050781e-01) (24, -1.41903027892112731934e-01) (25, -4.56881761550903320312e-01) (26, -4.77848619222640991211e-01) (27, -5.58090746402740478516e-01) (28, -3.36127251386642456055e-01) (29, -4.93306994438171386719e-01) (30, -5.17486393451690673828e-01) (31, -6.43812417984008789062e-01) (32, -1.27465739846229553223e-01) (33, -5.26072263717651367188e-01) (34, -5.16163647174835205078e-01) (35, -7.88141846656799316406e-01) (36, -5.86217164993286132812e-01) (37, -4.94421511888504028320e-01) (38, -5.76302945613861083984e-01) (39, -8.80611464381217956543e-02) (40, 5.95087744295597076416e-02) (41, -1.86768069863319396973e-01) (42, -7.49146863818168640137e-02) (43, -8.97890686988830566406e-01) (44, -6.57011210918426513672e-01) (45, -4.03967201709747314453e-01) (46, -1.43916994333267211914e-01) (47, 3.90975736081600189209e-02) (48, -7.88282811641693115234e-01) (0, 1.87056662980467081070e-03) (1, -1.01994216442108154297e-01) (2, -1.12281888723373413086e-01) (3, -1.63989081978797912598e-01) (4, -1.32077991962432861328e-01) (5, 8.95699020475149154663e-03) (6, -7.39408330991864204407e-03) (7, -1.25300854444503784180e-01) (8, -4.50460612773895263672e-02) (9, -1.22622817754745483398e-01) (10, 2.27288585156202316284e-02) (11, -1.15779131650924682617e-01) (12, -1.91784918308258056641e-01) (13, -1.66377589106559753418e-01) (14, -4.13327068090438842773e-02) (15, -8.74808877706527709961e-02) (16, 1.01855546236038208008e-01) (17, 5.30843101441860198975e-02) (18, -9.44440439343452453613e-02) (19, -1.89089357852935791016e-01) (20, -2.24104523658752441406e-01) (21, -5.39099574089050292969e-02) (22, 1.08544314280152320862e-02) (23, 5.40706515312194824219e-02) (24, -2.28276196867227554321e-02) (25, -7.17695876955986022949e-02) (26, -1.36225484311580657959e-02) (27, 3.32105755805969238281e-02) (28, -1.51590898633003234863e-01) (29, -9.39681679010391235352e-02) (30, 1.00651405751705169678e-01) (31, 1.45766958594322204590e-01) (32, -5.80480881035327911377e-02) (33, 4.34550456702709197998e-02) (34, 1.59351393580436706543e-01) (35, 3.77053506672382354736e-02) (36, -1.71991735696792602539e-01) (37, 1.01354710757732391357e-01) (38, 7.44047835469245910645e-02) (39, -1.03485457599163055420e-01) (40, 2.21885591745376586914e-02) (41, -1.17450328543782234192e-02) (42, -1.05578668415546417236e-01) (43, 4.68952991068363189697e-02) (44, 6.63457214832305908203e-02) (45, 9.13778021931648254395e-02) (46, -1.40420541167259216309e-01) (47, 1.64914615452289581299e-02) (48, -1.62483060359954833984e+00) (0, -1.45581707358360290527e-01) (1, 2.04715188592672348022e-02) (2, 5.93470521271228790283e-02) (3, -2.99693554639816284180e-01) (4, 1.28644794225692749023e-01) (5, 8.09835195541381835938e-02) (6, -1.62427306175231933594e-01) (7, -2.23639488220214843750e-01) (8, -1.94181457161903381348e-01) (9, 5.15291802585124969482e-02) (10, 1.17427378892898559570e-01) (11, -4.33989427983760833740e-02) (12, -1.41964554786682128906e-01) (13, -3.81015509366989135742e-01) (14, -1.17483019828796386719e-01) (15, -2.35985651612281799316e-01) (16, 1.76251783967018127441e-01) (17, 1.25151202082633972168e-01) (18, 3.51022258400917053223e-02) (19, 6.89091160893440246582e-02) (20, 1.08760528266429901123e-01) (21, 6.85104951262474060059e-02) (22, 1.38979345560073852539e-01) (23, 2.55579769611358642578e-01) (24, -2.02831625938415527344e-03) (25, 1.84996739029884338379e-01) (26, 2.00379073619842529297e-01) (27, 9.43498909473419189453e-02) (28, -1.81628942489624023438e-01) (29, 6.56319260597229003906e-02) (30, 3.08203101158142089844e-01) (31, 3.57378542423248291016e-01) (32, -1.76796719431877136230e-01) (33, 3.22595387697219848633e-01) (34, 2.78019636869430541992e-01) (35, 6.31453096866607666016e-02) (36, 9.44871455430984497070e-03) (37, 2.01198413968086242676e-01) (38, 1.13467805087566375732e-01) (39, 1.87616944313049316406e-02) (40, -2.04669445753097534180e-01) (41, 1.63795009255409240723e-01) (42, -1.56215071678161621094e-01) (43, 3.63224595785140991211e-01) (44, 1.08833320438861846924e-01) (45, 1.12057447433471679688e-01) (46, -1.16716362535953521729e-01) (47, -1.08926609158515930176e-01) (48, -1.64115166664123535156e+00) (0, -6.72846585512161254883e-02) (1, -1.92258179187774658203e-01) (2, -2.15720161795616149902e-01) (3, -2.31819823384284973145e-01) (4, -1.25800490379333496094e-01) (5, -4.99219298362731933594e-02) (6, -9.27693396806716918945e-02) (7, -2.89188083261251449585e-02) (8, 8.68929326534271240234e-02) (9, -7.37494453787803649902e-02) (10, 1.51847347617149353027e-01) (11, -1.42170041799545288086e-01) (12, -3.92362594604492187500e-01) (13, -2.77789860963821411133e-01) (14, -2.07602187991142272949e-01) (15, 1.09472788870334625244e-01) (16, 7.91831240057945251465e-02) (17, 6.57893121242523193359e-02) (18, -5.98345138132572174072e-02) (19, -2.60859251022338867188e-01) (20, -1.68845444917678833008e-01) (21, -9.72009599208831787109e-02) (22, 5.78359840437769889832e-03) (23, -2.70363330841064453125e-01) (24, 1.53972685337066650391e-01) (25, 5.25299571454524993896e-02) (26, 1.41066592186689376831e-02) (27, -2.07733407616615295410e-01) (28, -2.20836162567138671875e-01) (29, -2.64583289623260498047e-01) (30, -1.52650281786918640137e-01) (31, -8.19366350769996643066e-02) (32, -4.90416772663593292236e-03) (33, 1.07602722942829132080e-01) (34, -1.19605801999568939209e-01) (35, -1.94929108023643493652e-01) (36, -3.38309794664382934570e-01) (37, -2.18261986970901489258e-01) (38, -2.48485729098320007324e-01) (39, -2.05961912870407104492e-01) (40, -1.88185945153236389160e-01) (41, -7.18438550829887390137e-02) (42, -1.63472935557365417480e-01) (43, -2.62630641460418701172e-01) (44, -3.59179586172103881836e-01) (45, -1.25453114509582519531e-01) (46, -2.00486570596694946289e-01) (47, -2.73719161748886108398e-01) (48, -1.59727799892425537109e+00) (0, -1.22264735400676727295e-01) (1, -3.74488264322280883789e-01) (2, -1.68862551450729370117e-01) (3, -3.33797693252563476562e-01) (4, -9.14246439933776855469e-01) (5, -2.03030005097389221191e-01) (6, -2.15550541877746582031e-01) (7, 1.62759959697723388672e-01) (8, -6.13802433013916015625e-01) (9, -6.32365047931671142578e-01) (10, -1.03852167725563049316e-01) (11, -3.89551162719726562500e-01) (12, -6.24626398086547851562e-01) (13, 3.09461086988449096680e-01) (14, 1.03660844266414642334e-01) (15, -8.66005793213844299316e-02) (16, -1.10974937677383422852e-01) (17, -8.05576920509338378906e-01) (18, 2.64643043279647827148e-01) (19, -1.95716351270675659180e-01) (20, 6.37350603938102722168e-02) (21, 7.17462360858917236328e-01) (22, 5.92210352420806884766e-01) (23, 6.55963480472564697266e-01) (24, -3.64738821983337402344e-01) (25, -3.03099513053894042969e-01) (26, -3.29857856035232543945e-01) (27, -2.88933441042900085449e-02) (28, 3.38883578777313232422e-01) (29, 4.40238088369369506836e-01) (30, 8.55212926864624023438e-01) (31, 8.90647172927856445312e-01) (32, 3.48085671663284301758e-01) (33, -2.63606697320938110352e-01) (34, 4.37702536582946777344e-01) (35, 1.41666162014007568359e+00) (36, 3.04632335901260375977e-01) (37, 4.17990475893020629883e-01) (38, 1.03388452529907226562e+00) (39, 1.63160786032676696777e-02) (40, 1.17488808929920196533e-01) (41, 2.84128457307815551758e-01) (42, 6.57898545265197753906e-01) (43, 7.04021155834197998047e-01) (44, 1.72437925357371568680e-03) (45, 3.12063187360763549805e-01) (46, 1.61372005939483642578e-01) (47, 1.79220035672187805176e-01) (48, -2.50685191154479980469e+00) (0, -1.75238415598869323730e-01) (1, -1.05823919177055358887e-01) (2, -1.70922979712486267090e-01) (3, -1.11431159079074859619e-01) (4, -5.86929082870483398438e-01) (5, -2.75548636913299560547e-01) (6, -7.71426782011985778809e-02) (7, 5.87178841233253479004e-02) (8, 5.81096708774566650391e-02) (9, -4.29272055625915527344e-01) (10, -2.11385101079940795898e-01) (11, -1.48681193590164184570e-01) (12, -3.63806843757629394531e-01) (13, -1.28877356648445129395e-01) (14, -7.33882337808609008789e-02) (15, 4.79558408260345458984e-02) (16, -4.48969185352325439453e-01) (17, -4.65641766786575317383e-01) (18, -3.04488629102706909180e-01) (19, -2.60462820529937744141e-01) (20, -2.70824819803237915039e-01) (21, -3.48928719758987426758e-01) (22, -1.83501377701759338379e-01) (23, -3.54556709527969360352e-01) (24, -3.06466579437255859375e-01) (25, -3.02309870719909667969e-01) (26, -4.81000334024429321289e-01) (27, -4.34282541275024414062e-01) (28, -2.99961805343627929688e-01) (29, -4.26331579685211181641e-01) (30, -5.78457832336425781250e-01) (31, -2.72318065166473388672e-01) (32, 3.01249027252197265625e-02) (33, -5.42279303073883056641e-01) (34, -6.50086820125579833984e-01) (35, -6.02775871753692626953e-01) (36, -4.02458220720291137695e-01) (37, -2.93933719396591186523e-01) (38, -1.50139898061752319336e-01) (39, -4.67160437256097793579e-03) (40, 2.50907450914382934570e-01) (41, -2.43875876069068908691e-01) (42, 3.83243672549724578857e-02) (43, -9.44953024387359619141e-01) (44, -5.54041504859924316406e-01) (45, -3.92766594886779785156e-01) (46, -5.74983283877372741699e-02) (47, -9.40875783562660217285e-02) (48, -9.81691896915435791016e-01) (0, -1.70083984732627868652e-01) (1, -1.75164863467216491699e-01) (2, -6.48850426077842712402e-02) (3, -5.24088144302368164062e-02) (4, -4.83138293027877807617e-01) (5, -1.66018113493919372559e-01) (6, -1.22751951217651367188e-01) (7, 6.27477020025253295898e-02) (8, 9.09957587718963623047e-02) (9, -2.25775867700576782227e-01) (10, -1.81671634316444396973e-01) (11, -2.39840552210807800293e-01) (12, -4.31548327207565307617e-01) (13, -2.81877890229225158691e-02) (14, -1.78059086203575134277e-01) (15, 3.42872858047485351562e-01) (16, -2.25555732846260070801e-01) (17, -1.79599702358245849609e-01) (18, -2.29002505540847778320e-01) (19, -5.36703526973724365234e-01) (20, -4.99879866838455200195e-01) (21, -6.36739850044250488281e-01) (22, -4.81160014867782592773e-01) (23, -7.87363290786743164062e-01) (24, 8.75106900930404663086e-02) (25, -7.89654478430747985840e-02) (26, -4.04786914587020874023e-01) (27, -4.62277799844741821289e-01) (28, -5.73688983917236328125e-01) (29, -4.66166257858276367188e-01) (30, -6.64148926734924316406e-01) (31, -7.71742045879364013672e-01) (32, 2.92005419731140136719e-01) (33, -4.36818391084671020508e-01) (34, -4.13507372140884399414e-01) (35, -7.86540567874908447266e-01) (36, -7.39966809749603271484e-01) (37, -5.69876432418823242188e-01) (38, -4.63794529438018798828e-01) (39, -4.39404919743537902832e-02) (40, 1.65462553501129150391e-01) (41, -1.59860476851463317871e-01) (42, -1.72440528869628906250e-01) (43, -9.62427675724029541016e-01) (44, -7.33596384525299072266e-01) (45, -4.56934541463851928711e-01) (46, -5.66151365637779235840e-02) (47, 1.55425220727920532227e-02) (48, -8.35049629211425781250e-01) (0, -7.23744407296180725098e-02) (1, -2.20063179731369018555e-01) (2, -1.75232470035552978516e-01) (3, -1.26291438937187194824e-01) (4, -6.88712716102600097656e-01) (5, -2.04635113477706909180e-01) (6, -1.39030933380126953125e-01) (7, -7.23422467708587646484e-02) (8, 1.40489920973777770996e-01) (9, -4.02584373950958251953e-01) (10, -2.97523051500320434570e-01) (11, -2.83440798521041870117e-01) (12, -3.56049984693527221680e-01) (13, -5.39875961840152740479e-02) (14, -9.23780128359794616699e-02) (15, 1.52366861701011657715e-01) (16, -7.46329277753829956055e-02) (17, -1.77314966917037963867e-01) (18, -2.54620254039764404297e-01) (19, -5.55111944675445556641e-01) (20, -6.10322773456573486328e-01) (21, -5.35716235637664794922e-01) (22, -4.27010267972946166992e-01) (23, -7.78087198734283447266e-01) (24, 1.19039282202720642090e-01) (25, -1.29898920655250549316e-01) (26, -4.44109886884689331055e-01) (27, -5.55151343345642089844e-01) (28, -5.87389826774597167969e-01) (29, -6.59320473670959472656e-01) (30, -7.97042787075042724609e-01) (31, -8.90165627002716064453e-01) (32, 1.13714613020420074463e-01) (33, -3.22913795709609985352e-01) (34, -4.76857692003250122070e-01) (35, -8.59353840351104736328e-01) (36, -8.75464737415313720703e-01) (37, -5.03915250301361083984e-01) (38, -6.93032503128051757812e-01) (39, -5.77086359262466430664e-02) (40, 6.93877413868904113770e-02) (41, -2.45305627584457397461e-01) (42, -1.98371559381484985352e-01) (43, -8.71157109737396240234e-01) (44, -9.24498677253723144531e-01) (45, -3.76735985279083251953e-01) (46, -1.52915492653846740723e-01) (47, 3.17070186138153076172e-02) (48, -6.63038551807403564453e-01) (0, -1.44749209284782409668e-01) (1, -1.37242019176483154297e-01) (2, -1.26398399472236633301e-01) (3, -1.78530529141426086426e-01) (4, -1.69212624430656433105e-01) (5, -1.64573937654495239258e-01) (6, -6.05613403022289276123e-02) (7, 1.44395276904106140137e-01) (8, -2.00467318296432495117e-01) (9, -2.02406913042068481445e-01) (10, 3.96281294524669647217e-02) (11, -4.72980216145515441895e-02) (12, -3.15687507390975952148e-01) (13, -2.08191927522420883179e-02) (14, -9.73457247018814086914e-02) (15, 2.01422497630119323730e-02) (16, -3.46292704343795776367e-01) (17, -1.57833233475685119629e-01) (18, -1.15797780454158782959e-02) (19, -1.10126391053199768066e-01) (20, -1.48882150650024414062e-01) (21, 4.26165498793125152588e-02) (22, -2.94700078666210174561e-02) (23, -1.45275950431823730469e-01) (24, -2.92155146598815917969e-01) (25, -1.82326823472976684570e-01) (26, -2.16173604130744934082e-01) (27, -1.50058284401893615723e-01) (28, -2.58936047554016113281e-01) (29, -3.34224328398704528809e-02) (30, -1.52927860617637634277e-01) (31, 2.07470133900642395020e-02) (32, -5.93072809278964996338e-02) (33, -1.09404519200325012207e-01) (34, -1.02008417248725891113e-01) (35, -3.58518622815608978271e-02) (36, -7.40782693028450012207e-02) (37, -1.50542661547660827637e-01) (38, 1.55957698822021484375e-01) (39, -1.28029957413673400879e-01) (40, 1.08529873192310333252e-01) (41, 4.17433865368366241455e-02) (42, 2.17034801840782165527e-01) (43, -3.83683890104293823242e-01) (44, -2.93658047914505004883e-01) (45, -1.64232864975929260254e-01) (46, -1.08506999909877777100e-01) (47, -1.72396749258041381836e-01) (48, -1.61695420742034912109e+00) (0, 5.74300549924373626709e-02) (1, -1.85928776860237121582e-01) (2, -1.30907893180847167969e-01) (3, -5.45664019882678985596e-02) (4, -1.45454704761505126953e-01) (5, 4.15669940412044525146e-02) (6, 3.49811231717467308044e-03) (7, -6.44690729677677154541e-03) (8, -9.47287380695343017578e-02) (9, -1.77938476204872131348e-01) (10, -8.01251679658889770508e-02) (11, -1.86625435948371887207e-01) (12, -1.52734279632568359375e-01) (13, -2.90884729474782943726e-03) (14, -3.21192778646945953369e-02) (15, -1.66708827018737792969e-01) (16, -9.88038331270217895508e-02) (17, -2.98447161912918090820e-01) (18, -9.78923365473747253418e-02) (19, -1.05637095868587493896e-01) (20, -1.18038766086101531982e-01) (21, -1.61145612597465515137e-01) (22, -1.56088545918464660645e-01) (23, 1.26604571938514709473e-01) (24, -1.31446123123168945312e-01) (25, -1.20892852544784545898e-01) (26, -1.74899548292160034180e-02) (27, -2.31242522597312927246e-01) (28, -3.31390053033828735352e-01) (29, -1.23152449727058410645e-01) (30, -3.83978150784969329834e-02) (31, 1.95270165801048278809e-01) (32, 1.89583864994347095490e-03) (33, -1.28458306193351745605e-01) (34, 1.29392265807837247849e-03) (35, -2.86256987601518630981e-02) (36, -1.68223023414611816406e-01) (37, -4.46677096188068389893e-02) (38, -2.83419732004404067993e-02) (39, -1.04425273835659027100e-01) (40, -3.32306809723377227783e-02) (41, -1.70589298009872436523e-01) (42, -7.69693180918693542480e-02) (43, -2.20475047826766967773e-01) (44, -2.16200187802314758301e-01) (45, -9.90427955985069274902e-02) (46, -1.09136700630187988281e-01) (47, -4.19193655252456665039e-02) (48, -1.60092329978942871094e+00) (0, -6.73679262399673461914e-02) (1, -1.77360415458679199219e-01) (2, -7.98180773854255676270e-02) (3, -1.27199336886405944824e-01) (4, -4.29183483123779296875e-01) (5, -5.12650966644287109375e-01) (6, -1.23799331486225128174e-01) (7, -1.01177226752042770386e-02) (8, -1.36956363916397094727e-01) (9, -3.16075533628463745117e-01) (10, -1.74921229481697082520e-01) (11, -1.76138713955879211426e-01) (12, -5.74708282947540283203e-01) (13, -2.50474274158477783203e-01) (14, 7.07597583532333374023e-02) (15, 7.55988359451293945312e-02) (16, -5.11617302894592285156e-01) (17, -3.55995744466781616211e-01) (18, -3.45250070095062255859e-01) (19, -2.62785583734512329102e-01) (20, -3.45241457223892211914e-01) (21, -2.92367815971374511719e-01) (22, -3.19840013980865478516e-02) (23, -1.90998703241348266602e-01) (24, -4.22839403152465820312e-01) (25, -3.91782313585281372070e-01) (26, -5.42891323566436767578e-01) (27, -5.21161377429962158203e-01) (28, -4.22449469566345214844e-01) (29, -3.64376753568649291992e-01) (30, -2.16250747442245483398e-01) (31, -3.22864055633544921875e-02) (32, -2.27162688970565795898e-01) (33, -6.14330172538757324219e-01) (34, -4.66718852519989013672e-01) (35, -7.25616276264190673828e-01) (36, -3.70702415704727172852e-01) (37, -1.42446562647819519043e-01) (38, 5.93656525015830993652e-02) (39, -1.80532023310661315918e-01) (40, 2.77058556675910949707e-02) (41, -2.16257780790328979492e-01) (42, 5.37532009184360504150e-02) (43, -8.98505330085754394531e-01) (44, -4.02842015027999877930e-01) (45, -1.31884887814521789551e-01) (46, 2.46657915413379669189e-02) (47, -8.11311379075050354004e-02) (48, -1.18883776664733886719e+00) (0, 1.08279529958963394165e-02) (1, -1.64685007184743881226e-02) (2, -2.00985565781593322754e-01) (3, -2.78211295604705810547e-01) (4, -1.94994434714317321777e-01) (5, 4.64684888720512390137e-03) (6, -7.72514641284942626953e-02) (7, -1.27145409584045410156e-01) (8, -6.70626983046531677246e-02) (9, -9.47109088301658630371e-02) (10, -1.23403973877429962158e-01) (11, -1.75918042659759521484e-01) (12, -2.40154013037681579590e-01) (13, -1.87313213944435119629e-01) (14, 3.99817042052745819092e-02) (15, -1.84077993035316467285e-02) (16, -1.17193862795829772949e-01) (17, -1.71484097838401794434e-01) (18, -6.77646175026893615723e-02) (19, -1.80162265896797180176e-01) (20, -1.95552572607994079590e-01) (21, -2.76440858840942382812e-01) (22, -2.05892831087112426758e-01) (23, -7.58624821901321411133e-02) (24, -1.34412020444869995117e-01) (25, -1.78084596991539001465e-01) (26, -2.45449274778366088867e-01) (27, -1.77574917674064636230e-01) (28, -2.34270453453063964844e-01) (29, -2.49105960130691528320e-01) (30, -1.26960560679435729980e-01) (31, -2.56650418043136596680e-01) (32, -6.92468434572219848633e-02) (33, -1.29261046648025512695e-01) (34, -1.74550861120223999023e-01) (35, -2.26671844720840454102e-01) (36, -2.18891113996505737305e-01) (37, -9.27582606673240661621e-02) (38, -2.63832390308380126953e-01) (39, -1.62058651447296142578e-01) (40, 6.25861017033457756042e-03) (41, -4.96843680739402770996e-02) (42, -8.32189098000526428223e-02) (43, -3.66445571184158325195e-01) (44, -3.66937875747680664062e-01) (45, -1.18809118866920471191e-01) (46, -6.59220740199089050293e-02) (47, -1.35844975709915161133e-01) (48, -1.44592142105102539062e+00) (0, 6.43058046698570251465e-02) (1, -1.29644244909286499023e-01) (2, -6.99727609753608703613e-02) (3, -1.34886354207992553711e-01) (4, -5.39977729320526123047e-01) (5, -4.09761577844619750977e-01) (6, -2.59885042905807495117e-01) (7, -2.59046368300914764404e-02) (8, 1.67558237910270690918e-01) (9, -2.91149049997329711914e-01) (10, -2.59980082511901855469e-01) (11, -2.63725340366363525391e-01) (12, -3.22945684194564819336e-01) (13, -8.67363363504409790039e-02) (14, -7.52309560775756835938e-02) (15, 2.04708818346261978149e-02) (16, -4.79128301143646240234e-01) (17, -5.43528497219085693359e-01) (18, -4.41683948040008544922e-01) (19, -4.77771103382110595703e-01) (20, -5.11705338954925537109e-01) (21, -4.55604016780853271484e-01) (22, -2.45288789272308349609e-01) (23, -6.13686919212341308594e-01) (24, -2.77940481901168823242e-01) (25, -4.30320709943771362305e-01) (26, -6.88004434108734130859e-01) (27, -5.62233090400695800781e-01) (28, -3.40068340301513671875e-01) (29, -5.70076942443847656250e-01) (30, -6.17070615291595458984e-01) (31, -5.37041127681732177734e-01) (32, -2.36750796437263488770e-01) (33, -6.32149040699005126953e-01) (34, -7.23482310771942138672e-01) (35, -1.03123557567596435547e+00) (36, -5.12704253196716308594e-01) (37, -4.03294712305068969727e-01) (38, -2.40882843732833862305e-01) (39, -3.37436646223068237305e-02) (40, 3.36350016295909881592e-02) (41, -4.29895281791687011719e-01) (42, -4.82758022844791412354e-02) (43, -1.29708385467529296875e+00) (44, -6.22498214244842529297e-01) (45, -3.57334226369857788086e-01) (46, 4.26649600267410278320e-02) (47, -2.79416255652904510498e-02) (48, -5.64237773418426513672e-01) (0, -2.50580180436372756958e-02) (1, -1.75867691636085510254e-01) (2, -2.79194444417953491211e-01) (3, -2.13693171739578247070e-01) (4, -4.61516320705413818359e-01) (5, -1.90436854958534240723e-01) (6, -1.42707064747810363770e-01) (7, 5.09534999728202819824e-02) (8, -8.75530168414115905762e-02) (9, -1.76966488361358642578e-01) (10, -1.12918138504028320312e-01) (11, -2.46490359306335449219e-01) (12, -2.57484912872314453125e-01) (13, -1.92793190479278564453e-01) (14, -1.68696027249097824097e-02) (15, 1.91226735711097717285e-01) (16, -8.93063023686408996582e-02) (17, -2.50451304018497467041e-02) (18, -1.84468984603881835938e-01) (19, -4.33562487363815307617e-01) (20, -3.22305411100387573242e-01) (21, -4.47480231523513793945e-01) (22, -3.53109627962112426758e-01) (23, -4.82691407203674316406e-01) (24, 7.10153058171272277832e-02) (25, -1.76620841026306152344e-01) (26, -2.27193906903266906738e-01) (27, -3.85785102844238281250e-01) (28, -3.22406798601150512695e-01) (29, -3.25840562582015991211e-01) (30, -4.45201516151428222656e-01) (31, -4.79824990034103393555e-01) (32, 1.77901193499565124512e-01) (33, -2.49057963490486145020e-01) (34, -3.38722109794616699219e-01) (35, -4.44840997457504272461e-01) (36, -4.26066905260086059570e-01) (37, -4.30066347122192382812e-01) (38, -3.48554700613021850586e-01) (39, -3.21509316563606262207e-02) (40, 9.37285348773002624512e-02) (41, -1.61733865737915039062e-01) (42, -1.43776491284370422363e-01) (43, -5.54699361324310302734e-01) (44, -5.04328608512878417969e-01) (45, -3.65208715200424194336e-01) (46, -6.94673955440521240234e-02) (47, -1.39634862542152404785e-01) (48, -1.29424154758453369141e+00) (0, -1.15079626441001892090e-01) (1, -4.50339987874031066895e-02) (2, -4.48672063648700714111e-02) (3, -2.45858445763587951660e-01) (4, 3.26520539820194244385e-02) (5, -1.05116769671440124512e-01) (6, -1.74163132905960083008e-01) (7, -2.31524825096130371094e-01) (8, 3.35312890820205211639e-03) (9, 8.40709581971168518066e-02) (10, -5.74997365474700927734e-02) (11, -3.14577519893646240234e-02) (12, -2.63996034860610961914e-01) (13, -2.05323055386543273926e-01) (14, -7.26969838142395019531e-02) (15, -9.10151228308677673340e-02) (16, 2.25596114993095397949e-01) (17, -7.68935494124889373779e-03) (18, -5.27421608567237854004e-02) (19, -1.75519257783889770508e-01) (20, -3.99108417332172393799e-03) (21, -7.08674639463424682617e-02) (22, -9.01743918657302856445e-02) (23, 1.05210341513156890869e-01) (24, 1.73177272081375122070e-01) (25, 1.38290449976921081543e-01) (26, 4.76145222783088684082e-02) (27, 3.93550507724285125732e-02) (28, -5.85265867412090301514e-02) (29, -5.36033585667610168457e-02) (30, 1.94085106253623962402e-01) (31, 1.93515643477439880371e-01) (32, -2.08490043878555297852e-01) (33, 2.06803232431411743164e-01) (34, 6.09755590558052062988e-02) (35, -7.46422410011291503906e-02) (36, -2.06746771931648254395e-01) (37, -4.06080335378646850586e-02) (38, -5.72341717779636383057e-02) (39, 1.14251757040619850159e-02) (40, -3.07045757770538330078e-01) (41, -2.24188286811113357544e-02) (42, -1.25924721360206604004e-01) (43, 3.16275022923946380615e-02) (44, -1.64875537157058715820e-02) (45, 7.83781986683607101440e-03) (46, -1.25456333160400390625e-01) (47, -1.35973989963531494141e-01) (48, -1.63572776317596435547e+00) (0, 3.93604114651679992676e-02) (1, -1.30902424454689025879e-01) (2, -2.04432681202888488770e-01) (3, -2.07630693912506103516e-01) (4, -2.48254045844078063965e-01) (5, -1.78650379180908203125e-01) (6, -1.57807365059852600098e-01) (7, -1.01061142981052398682e-01) (8, -1.69734552502632141113e-01) (9, -2.07336038351058959961e-01) (10, -2.82485574483871459961e-01) (11, -2.03510105609893798828e-01) (12, -1.34924903512001037598e-01) (13, -5.86748607456684112549e-02) (14, 1.27883493900299072266e-01) (15, 5.39545156061649322510e-02) (16, -8.11828672885894775391e-02) (17, -3.48307758569717407227e-01) (18, -2.93931990861892700195e-01) (19, -4.68697190284729003906e-01) (20, -2.63716638088226318359e-01) (21, -3.78679662942886352539e-01) (22, -2.91407585144042968750e-01) (23, -2.00274392962455749512e-01) (24, -1.80578634142875671387e-01) (25, -2.08692327141761779785e-01) (26, -2.70013123750686645508e-01) (27, -3.09638500213623046875e-01) (28, -3.14080268144607543945e-01) (29, -3.90615731477737426758e-01) (30, -2.61274427175521850586e-01) (31, -2.45737597346305847168e-01) (32, 3.14156226813793182373e-02) (33, -2.40713402628898620605e-01) (34, -2.16815546154975891113e-01) (35, -4.77192968130111694336e-01) (36, -2.98854053020477294922e-01) (37, -1.80938541889190673828e-01) (38, -2.66324549913406372070e-01) (39, -1.64039194583892822266e-01) (40, 9.47730764746665954590e-02) (41, -6.55111744999885559082e-02) (42, -2.94754728674888610840e-02) (43, -4.19851958751678466797e-01) (44, -3.76280933618545532227e-01) (45, -1.63232564926147460938e-01) (46, -1.26524552702903747559e-01) (47, -6.60120025277137756348e-02) (48, -1.32359898090362548828e+00) (0, 5.40910251438617706299e-02) (1, -9.49000865221023559570e-02) (2, -1.72228887677192687988e-01) (3, -8.95024538040161132812e-02) (4, -1.34331971406936645508e-01) (5, 5.17641268670558929443e-02) (6, -1.52652278542518615723e-01) (7, -2.28146687150001525879e-01) (8, -4.49049249291419982910e-02) (9, -1.43437340855598449707e-01) (10, -2.79178202152252197266e-01) (11, -1.38244584202766418457e-01) (12, -2.25222975015640258789e-01) (13, -6.72155246138572692871e-02) (14, 2.51777712255716323853e-02) (15, -1.91892564296722412109e-01) (16, -1.77676193416118621826e-02) (17, -1.71408295631408691406e-01) (18, -2.51939803361892700195e-01) (19, -3.58508199453353881836e-01) (20, -3.24263036251068115234e-01) (21, -2.64755636453628540039e-01) (22, -2.29453414678573608398e-01) (23, -9.36248824000358581543e-02) (24, 1.23810350894927978516e-01) (25, -6.66340440511703491211e-02) (26, -1.72612011432647705078e-01) (27, -2.36472293734550476074e-01) (28, -1.79927229881286621094e-01) (29, -2.12945312261581420898e-01) (30, -6.32456839084625244141e-02) (31, -3.58187139034271240234e-01) (32, -1.08628831803798675537e-01) (33, -2.16368436813354492188e-01) (34, -1.93805888295173645020e-01) (35, -3.23125243186950683594e-01) (36, -3.91992658376693725586e-01) (37, -2.35715761780738830566e-01) (38, -2.82931894063949584961e-01) (39, -7.76551142334938049316e-02) (40, -2.07933723926544189453e-01) (41, -1.57059669494628906250e-01) (42, -6.16916157305240631104e-02) (43, -2.53031075000762939453e-01) (44, -3.39889168739318847656e-01) (45, -4.82893213629722595215e-02) (46, -1.89298391342163085938e-01) (47, -7.46443718671798706055e-02) (48, -1.45139110088348388672e+00) (0, -1.46346762776374816895e-01) (1, -5.10066896677017211914e-02) (2, -1.21025420725345611572e-01) (3, -1.51744335889816284180e-01) (4, -4.98552545905113220215e-02) (5, -5.32787628471851348877e-02) (6, -1.28244876861572265625e-01) (7, -3.04767601191997528076e-02) (8, -7.42167904973030090332e-02) (9, -5.65380267798900604248e-02) (10, 5.83886262029409408569e-03) (11, -4.58525046706199645996e-02) (12, -2.16192051768302917480e-01) (13, -2.41853430867195129395e-01) (14, -1.32792919874191284180e-01) (15, -5.86376413702964782715e-02) (16, 3.29785570502281188965e-02) (17, 5.99253922700881958008e-02) (18, -8.78827571868896484375e-02) (19, -5.32421134412288665771e-02) (20, -7.75232017040252685547e-02) (21, -1.85159638524055480957e-01) (22, -9.34500545263290405273e-02) (23, -1.64607197046279907227e-01) (24, 9.99687984585762023926e-02) (25, -3.73969189822673797607e-02) (26, -3.41040454804897308350e-02) (27, -1.57598033547401428223e-01) (28, -2.18135163187980651855e-01) (29, -2.14060202240943908691e-01) (30, -1.99344933032989501953e-01) (31, -1.61436468362808227539e-01) (32, 8.83063941728323698044e-04) (33, -2.56902948021888732910e-02) (34, 5.98951354622840881348e-02) (35, -4.33535277843475341797e-02) (36, -1.76590234041213989258e-01) (37, -1.73633188009262084961e-01) (38, -9.44898128509521484375e-02) (39, -1.69342324137687683105e-01) (40, -9.00299698114395141602e-02) (41, 4.23366799950599670410e-02) (42, -5.27536123991012573242e-02) (43, -1.68982669711112976074e-01) (44, -2.49917626380920410156e-01) (45, -6.82758465409278869629e-02) (46, -1.56792417168617248535e-01) (47, -2.72109657526016235352e-01) (48, -1.58656024932861328125e+00) (0, 3.72876152396202087402e-02) (1, -9.49816219508647918701e-03) (2, -7.30698779225349426270e-02) (3, -5.20187094807624816895e-02) (4, -3.11387419700622558594e-01) (5, -2.50089436769485473633e-01) (6, -1.64580389857292175293e-01) (7, -2.36998155713081359863e-01) (8, 2.61635463684797286987e-02) (9, 1.18358455598354339600e-01) (10, -1.44022908061742782593e-02) (11, -3.01875416189432144165e-02) (12, -2.09633067250251770020e-01) (13, -3.55071514844894409180e-01) (14, -1.30924284458160400391e-01) (15, -4.03555303812026977539e-01) (16, 2.53399223089218139648e-01) (17, 4.22685295343399047852e-02) (18, 9.73302591592073440552e-03) (19, -1.54380440711975097656e-01) (20, -2.53591895103454589844e-01) (21, -2.11345404386520385742e-01) (22, -1.39991670846939086914e-01) (23, 7.23179206252098083496e-02) (24, 4.63813483715057373047e-01) (25, 2.48457729816436767578e-01) (26, 2.24979072809219360352e-01) (27, 9.09453555941581726074e-02) (28, 3.60721796751022338867e-02) (29, -7.38742053508758544922e-02) (30, 1.37323409318923950195e-01) (31, 9.08627212047576904297e-02) (32, -2.26079687476158142090e-01) (33, 1.44214093685150146484e-01) (34, 2.47962027788162231445e-01) (35, 1.02134726941585540771e-01) (36, -1.63958474993705749512e-01) (37, 2.74127889424562454224e-02) (38, -1.33626878261566162109e-01) (39, 1.11059620976448059082e-02) (40, -3.51545482873916625977e-01) (41, -2.20976188778877258301e-01) (42, 7.36607238650321960449e-02) (43, 1.27038061618804931641e-01) (44, 5.41611947119235992432e-02) (45, 2.61030137538909912109e-01) (46, -5.03072515130043029785e-02) (47, -2.15860176831483840942e-02) (48, -1.75497817993164062500e+00) (0, -1.26046046614646911621e-01) (1, -1.69872418045997619629e-01) (2, -5.33221960067749023438e-02) (3, -2.30029255151748657227e-01) (4, -2.16415703296661376953e-01) (5, -8.24119970202445983887e-02) (6, -1.60251751542091369629e-01) (7, -5.64459823071956634521e-02) (8, -1.37348264455795288086e-01) (9, -4.58287820219993591309e-02) (10, -3.95816005766391754150e-02) (11, -7.51986354589462280273e-02) (12, -1.72278493642807006836e-01) (13, -1.05756029486656188965e-01) (14, -1.06930825859308242798e-02) (15, 2.33034677803516387939e-02) (16, -8.13579186797142028809e-02) (17, -1.32847398519515991211e-01) (18, -1.33567333221435546875e-01) (19, -1.56334772706031799316e-01) (20, -1.79741054773330688477e-01) (21, -1.88964620232582092285e-01) (22, -2.27849513292312622070e-01) (23, -1.46752474829554557800e-02) (24, 2.36459895968437194824e-02) (25, -1.57073929905891418457e-01) (26, -1.99338808655738830566e-01) (27, -1.09656430780887603760e-01) (28, -2.19074785709381103516e-01) (29, -1.29297703504562377930e-01) (30, -1.53608828783035278320e-01) (31, -8.05655866861343383789e-02) (32, -2.86915469914674758911e-02) (33, -7.16791525483131408691e-02) (34, -7.20953792333602905273e-02) (35, -1.49203166365623474121e-01) (36, -2.69050955772399902344e-01) (37, -5.29948174953460693359e-02) (38, -1.16977527737617492676e-01) (39, -9.94377583265304565430e-02) (40, -2.58300006389617919922e-02) (41, -1.22520036995410919189e-01) (42, -2.00052112340927124023e-01) (43, -2.49064132571220397949e-01) (44, -1.15292683243751525879e-01) (45, -7.29505047202110290527e-02) (46, -1.59875497221946716309e-01) (47, -1.08166798949241638184e-01) (48, -1.55750584602355957031e+00) (0, -3.10623436234891414642e-03) (1, -1.88479438424110412598e-01) (2, -1.81872829794883728027e-01) (3, -8.42585787177085876465e-02) (4, -2.32304468750953674316e-01) (5, -1.07780195772647857666e-01) (6, 5.44072054326534271240e-02) (7, -1.09998300671577453613e-01) (8, -1.45462006330490112305e-01) (9, -1.10661298036575317383e-01) (10, -1.10907271504402160645e-01) (11, -1.11830279231071472168e-01) (12, -1.03212445974349975586e-01) (13, -1.91703110933303833008e-01) (14, 3.68717461824417114258e-02) (15, 1.06621929444372653961e-03) (16, -2.35058963298797607422e-02) (17, -2.12822213768959045410e-01) (18, -6.25639259815216064453e-02) (19, -2.83231288194656372070e-01) (20, -1.98903441429138183594e-01) (21, -2.48027414083480834961e-01) (22, -2.34585732221603393555e-01) (23, 6.67775273323059082031e-02) (24, -1.48910611867904663086e-01) (25, -1.07261598110198974609e-01) (26, -5.37190325558185577393e-02) (27, -1.36893570423126220703e-01) (28, -2.22359448671340942383e-01) (29, -2.68662989139556884766e-01) (30, -3.87294776737689971924e-03) (31, -1.71825125813484191895e-01) (32, -8.27817171812057495117e-02) (33, -2.10273981094360351562e-01) (34, -1.62764698266983032227e-01) (35, -2.69240111112594604492e-01) (36, -2.28491947054862976074e-01) (37, -2.00191244482994079590e-01) (38, -2.40862175822257995605e-01) (39, -3.02999205887317657471e-02) (40, -9.42640677094459533691e-02) (41, -1.39399215579032897949e-01) (42, -7.90423229336738586426e-02) (43, -3.09217214584350585938e-01) (44, -2.61239141225814819336e-01) (45, -1.78743321448564529419e-02) (46, -5.14049641788005828857e-02) (47, -1.97824209928512573242e-01) (48, -1.51686072349548339844e+00) (0, -5.54057769477367401123e-02) (1, -1.28638178110122680664e-01) (2, -6.26240894198417663574e-02) (3, -2.28273183107376098633e-01) (4, -3.04346740245819091797e-01) (5, -1.75842151045799255371e-01) (6, -1.11399173736572265625e-01) (7, 2.31897961348295211792e-02) (8, -6.39132484793663024902e-02) (9, -3.06392312049865722656e-01) (10, -4.55521941184997558594e-02) (11, -1.22863933444023132324e-01) (12, -4.42477732896804809570e-01) (13, -2.17594370245933532715e-01) (14, -4.51034493744373321533e-02) (15, 1.10489726066589355469e-01) (16, -3.06074082851409912109e-01) (17, -2.64455705881118774414e-01) (18, -2.21028521656990051270e-01) (19, -3.05812209844589233398e-01) (20, -2.11023196578025817871e-01) (21, -1.73615589737892150879e-01) (22, -1.33653327822685241699e-01) (23, -2.86153584718704223633e-01) (24, -2.90540546178817749023e-01) (25, -1.35594740509986877441e-01) (26, -4.26084727048873901367e-01) (27, -2.34133020043373107910e-01) (28, -3.39828491210937500000e-01) (29, -3.13197672367095947266e-01) (30, -4.50308740139007568359e-01) (31, -2.37131103873252868652e-01) (32, 1.35587722063064575195e-01) (33, -2.13501974940299987793e-01) (34, -3.88287872076034545898e-01) (35, -4.29612517356872558594e-01) (36, -3.05724948644638061523e-01) (37, -2.76357561349868774414e-01) (38, -4.35667783021926879883e-02) (39, -1.60799384117126464844e-01) (40, 4.75541949272155761719e-02) (41, -8.27643424272537231445e-02) (42, 3.41170355677604675293e-02) (43, -7.33846843242645263672e-01) (44, -3.91429573297500610352e-01) (45, -2.42345198988914489746e-01) (46, -4.34712581336498260498e-02) (47, -2.15032383799552917480e-01) (48, -1.29086565971374511719e+00) (0, 1.42337024211883544922e-01) (1, 3.47289405763149261475e-02) (2, -9.80614572763442993164e-02) (3, 1.87391731888055801392e-02) (4, -2.66355454921722412109e-01) (5, -1.33306235074996948242e-01) (6, -2.03797504305839538574e-01) (7, -8.67569223046302795410e-02) (8, 4.29845228791236877441e-02) (9, -5.06494343280792236328e-02) (10, -5.58884814381599426270e-02) (11, -2.21697881817817687988e-01) (12, -2.73985676467418670654e-02) (13, -1.51937961578369140625e-01) (14, -9.46598127484321594238e-02) (15, -2.74233847856521606445e-01) (16, 8.76743495464324951172e-02) (17, -1.02459393441677093506e-01) (18, -9.72105003893375396729e-03) (19, -1.70552626252174377441e-01) (20, -3.74895662069320678711e-01) (21, -2.10534542798995971680e-01) (22, -1.54576748609542846680e-01) (23, 1.06079131364822387695e-01) (24, 7.20318406820297241211e-02) (25, -9.84030812978744506836e-02) (26, -1.23509177938103675842e-02) (27, -1.60968035459518432617e-01) (28, -1.17445364594459533691e-01) (29, -1.19116835296154022217e-01) (30, 1.22382305562496185303e-02) (31, -6.66097700595855712891e-02) (32, -2.34339505434036254883e-01) (33, -1.85830026865005493164e-01) (34, -9.79016944766044616699e-02) (35, -1.47032335400581359863e-01) (36, -2.88730442523956298828e-01) (37, 6.29102587699890136719e-02) (38, -8.57866182923316955566e-02) (39, 2.70023588091135025024e-02) (40, -2.10395574569702148438e-01) (41, -2.58341431617736816406e-01) (42, -1.57246246933937072754e-01) (43, -2.14370384812355041504e-01) (44, -2.06083908677101135254e-01) (45, -1.26021921634674072266e-01) (46, -8.56740027666091918945e-02) (47, 1.45487129688262939453e-01) (48, -1.56761252880096435547e+00) (0, -1.89059618860483169556e-02) (1, -1.04345217347145080566e-01) (2, -3.58335152268409729004e-02) (3, 4.02114819735288619995e-03) (4, -2.53712356090545654297e-01) (5, -9.02466848492622375488e-02) (6, -2.44088649749755859375e-01) (7, -1.96485623717308044434e-01) (8, -8.68301913142204284668e-02) (9, -2.54425257444381713867e-01) (10, -9.09731462597846984863e-02) (11, -1.06012992560863494873e-01) (12, -2.83102184534072875977e-01) (13, -8.59463140368461608887e-02) (14, -2.52112686634063720703e-01) (15, -3.39889168739318847656e-01) (16, -1.07879944145679473877e-01) (17, -1.49467229843139648438e-01) (18, 2.71495640277862548828e-01) (19, -1.83973666280508041382e-02) (20, -2.43859395384788513184e-01) (21, -6.86698453500866889954e-03) (22, 6.89270943403244018555e-02) (23, 3.66512566804885864258e-01) (24, -2.22229912877082824707e-01) (25, -3.44805717468261718750e-02) (26, -1.06600902974605560303e-01) (27, -8.55752006173133850098e-02) (28, -2.50522941350936889648e-01) (29, 2.18042850494384765625e-01) (30, 2.68708527088165283203e-01) (31, 5.69510102272033691406e-01) (32, -6.29701763391494750977e-02) (33, 6.86177089810371398926e-02) (34, 2.60250389575958251953e-01) (35, 1.78498372435569763184e-01) (36, -7.49079808592796325684e-02) (37, 9.87317487597465515137e-02) (38, 4.91051822900772094727e-01) (39, 1.03640981018543243408e-01) (40, -4.97775189578533172607e-02) (41, 4.39112968742847442627e-02) (42, -4.76251617074012756348e-02) (43, 2.32874885201454162598e-01) (44, -3.47061008214950561523e-02) (45, -4.04856242239475250244e-02) (46, 1.46977588534355163574e-01) (47, 1.58830478787422180176e-01) (48, -1.69563603401184082031e+00) (0, -6.49414630606770515442e-03) (1, -8.75014290213584899902e-02) (2, -1.12689994275569915771e-01) (3, -7.12372064590454101562e-02) (4, -4.98694986104965209961e-01) (5, -2.96923816204071044922e-01) (6, -5.01388683915138244629e-02) (7, -7.90960118174552917480e-02) (8, 4.98856008052825927734e-02) (9, -3.34331631660461425781e-01) (10, -1.83584913611412048340e-01) (11, -2.72539019584655761719e-01) (12, -3.35839420557022094727e-01) (13, -6.40978366136550903320e-02) (14, -1.24935068190097808838e-01) (15, 1.74891427159309387207e-02) (16, -3.13652396202087402344e-01) (17, -2.37897425889968872070e-01) (18, -1.94673493504524230957e-01) (19, -3.52208822965621948242e-01) (20, -4.38853204250335693359e-01) (21, -4.34175759553909301758e-01) (22, -2.81013429164886474609e-01) (23, -6.46845042705535888672e-01) (24, -1.53162375092506408691e-01) (25, -3.34101587533950805664e-01) (26, -3.93622785806655883789e-01) (27, -4.03047621250152587891e-01) (28, -4.67097669839859008789e-01) (29, -5.06984114646911621094e-01) (30, -5.63422918319702148438e-01) (31, -5.13923704624176025391e-01) (32, 2.94440090656280517578e-02) (33, -3.50673884153366088867e-01) (34, -5.73185741901397705078e-01) (35, -7.04533874988555908203e-01) (36, -5.55382966995239257812e-01) (37, -3.18361788988113403320e-01) (38, -2.67633438110351562500e-01) (39, -7.51490592956542968750e-02) (40, 1.75177156925201416016e-02) (41, -2.59270727634429931641e-01) (42, -1.03147476911544799805e-01) (43, -9.15389358997344970703e-01) (44, -6.32744669914245605469e-01) (45, -3.21293056011199951172e-01) (46, 1.53336897492408752441e-02) (47, -4.09450419247150421143e-02) (48, -8.43979716300964355469e-01) (0, -1.58839449286460876465e-01) (1, -6.75896927714347839355e-02) (2, 2.54083067178726196289e-01) (3, -1.21142365038394927979e-01) (4, -8.11141431331634521484e-02) (5, -1.58750608563423156738e-01) (6, -3.52729171514511108398e-01) (7, -5.31215742230415344238e-02) (8, 4.08874824643135070801e-02) (9, 9.72496271133422851562e-01) (10, 5.56242883205413818359e-01) (11, 2.87687599658966064453e-01) (12, -6.82592272758483886719e-01) (13, -2.25030601024627685547e-01) (14, -6.46509766578674316406e-01) (15, -6.94151103496551513672e-01) (16, 8.20282816886901855469e-01) (17, 1.31279933452606201172e+00) (18, 7.88284897804260253906e-01) (19, 8.47292900085449218750e-01) (20, 1.45049378275871276855e-01) (21, 5.37736117839813232422e-01) (22, 4.12525862455368041992e-01) (23, 5.76346814632415771484e-02) (24, 1.14263820648193359375e+00) (25, 1.10795509815216064453e+00) (26, 8.61876785755157470703e-01) (27, 1.27161002159118652344e+00) (28, 6.00689828395843505859e-01) (29, 6.51885986328125000000e-01) (30, 3.44751983880996704102e-01) (31, 7.70404338836669921875e-01) (32, -1.71836972236633300781e-01) (33, 1.48338723182678222656e+00) (34, 1.11077058315277099609e+00) (35, 1.22701287269592285156e+00) (36, 6.27129971981048583984e-01) (37, 8.23975086212158203125e-01) (38, 1.18910682201385498047e+00) (39, -2.79833115637302398682e-02) (40, -3.94543558359146118164e-01) (41, 1.34429246187210083008e-01) (42, 5.56456267833709716797e-01) (43, 1.08922553062438964844e+00) (44, 8.29818487167358398438e-01) (45, 5.07064878940582275391e-01) (46, -4.77706603705883026123e-02) (47, 3.81023496389389038086e-01) (48, -3.60494643449783325195e-01) (0, -1.60289153456687927246e-01) (1, 3.03516611456871032715e-02) (2, 2.43207253515720367432e-02) (3, -5.52326142787933349609e-02) (4, -1.55386393889784812927e-02) (5, -2.79762316495180130005e-02) (6, -1.30129098892211914062e-01) (7, -4.27552349865436553955e-02) (8, -2.16433733701705932617e-01) (9, -1.63384340703487396240e-02) (10, 4.72587756812572479248e-02) (11, 2.36051175743341445923e-02) (12, -2.28426948189735412598e-01) (13, 3.25421877205371856689e-02) (14, -1.48741960525512695312e-01) (15, -2.50923812389373779297e-01) (16, 1.66259985417127609253e-02) (17, 5.75529923662543296814e-03) (18, 1.76152437925338745117e-01) (19, 5.95883689820766448975e-02) (20, -2.54973411560058593750e-01) (21, -3.75965908169746398926e-02) (22, 4.27197292447090148926e-02) (23, 2.65741020441055297852e-01) (24, -5.51648857071995735168e-03) (25, 1.55311480164527893066e-01) (26, 1.99660018086433410645e-01) (27, -3.19343917071819305420e-02) (28, -1.51977777481079101562e-01) (29, 3.06427657604217529297e-01) (30, 4.66035634279251098633e-01) (31, 5.35093486309051513672e-01) (32, 1.36170580983161926270e-01) (33, 3.44203233718872070312e-01) (34, 4.61074978113174438477e-01) (35, 2.86726385354995727539e-01) (36, -7.02783539891242980957e-02) (37, 1.54055938124656677246e-01) (38, 4.46625202894210815430e-01) (39, 7.51205235719680786133e-02) (40, -1.33883673697710037231e-04) (41, 2.26691067218780517578e-01) (42, 1.67868528515100479126e-02) (43, 3.18338453769683837891e-01) (44, 3.71429286897182464600e-02) (45, 1.09284758567810058594e-01) (46, -3.70190776884555816650e-02) (47, 1.54628425836563110352e-01) (48, -1.73484563827514648438e+00) (0, 1.72079838812351226807e-02) (1, -1.58194452524185180664e-01) (2, -9.50081869959831237793e-02) (3, -1.74216926097869873047e-01) (4, -9.91583764553070068359e-02) (5, -1.37806208804249763489e-02) (6, -6.54675289988517761230e-02) (7, -1.67810861021280288696e-02) (8, -1.61150306463241577148e-01) (9, -1.04477532207965850830e-01) (10, -1.03118017315864562988e-01) (11, -1.90558493137359619141e-01) (12, -1.89105167984962463379e-01) (13, -1.45028144121170043945e-01) (14, 4.78816740214824676514e-02) (15, -1.65471211075782775879e-01) (16, 5.44931273907423019409e-03) (17, -1.65528506040573120117e-01) (18, 2.68519502133131027222e-02) (19, -5.02986311912536621094e-02) (20, -2.04454749822616577148e-01) (21, -1.67767912149429321289e-01) (22, -1.30569890141487121582e-01) (23, -9.67829674482345581055e-03) (24, -6.63067698478698730469e-02) (25, -8.16669762134552001953e-02) (26, -4.15947251021862030029e-02) (27, -1.17256641387939453125e-01) (28, -3.26811343431472778320e-01) (29, -5.42661137878894805908e-02) (30, 9.73429307341575622559e-02) (31, 1.67695179581642150879e-01) (32, 2.55373679101467132568e-02) (33, -1.15935660898685455322e-01) (34, -8.83030369877815246582e-02) (35, -9.08514261245727539062e-02) (36, -7.52911418676376342773e-02) (37, -3.39976930990815162659e-03) (38, 6.76642581820487976074e-02) (39, -1.16030611097812652588e-01) (40, -7.40045867860317230225e-03) (41, -8.26106518507003784180e-02) (42, -1.05468213558197021484e-01) (43, -1.34253159165382385254e-01) (44, -1.07655435800552368164e-01) (45, -1.37098640203475952148e-01) (46, -9.05630290508270263672e-02) (47, -8.64725336432456970215e-02) (48, -1.61128687858581542969e+00) (0, -5.55332750082015991211e-02) (1, -1.37151792645454406738e-01) (2, -7.41093829274177551270e-02) (3, -3.38110402226448059082e-02) (4, -2.42916017770767211914e-01) (5, -2.33464509248733520508e-01) (6, -1.42705112695693969727e-01) (7, -8.73407647013664245605e-02) (8, -3.97828258574008941650e-02) (9, -3.11127603054046630859e-01) (10, -1.48254767060279846191e-01) (11, -1.24060541391372680664e-01) (12, -2.29101151227951049805e-01) (13, -1.98999017477035522461e-01) (14, 4.71059754490852355957e-02) (15, -1.74958169460296630859e-01) (16, -3.47124338150024414062e-01) (17, -5.57305335998535156250e-01) (18, -3.29533249139785766602e-01) (19, -3.71687889099121093750e-01) (20, -2.23190903663635253906e-01) (21, -3.15624326467514038086e-01) (22, -1.74087911844253540039e-01) (23, -1.50049284100532531738e-01) (24, -4.31844085454940795898e-01) (25, -4.18678492307662963867e-01) (26, -3.72624039649963378906e-01) (27, -4.17382210493087768555e-01) (28, -3.98841410875320434570e-01) (29, -4.03170168399810791016e-01) (30, -2.16398596763610839844e-01) (31, -7.04788714647293090820e-02) (32, -1.75956815481185913086e-01) (33, -5.23316323757171630859e-01) (34, -5.04611790180206298828e-01) (35, -5.66022098064422607422e-01) (36, -3.92906129360198974609e-01) (37, -1.74212634563446044922e-01) (38, -3.71231064200401306152e-02) (39, -8.68324860930442810059e-02) (40, 3.48670370876789093018e-02) (41, -3.16729336977005004883e-01) (42, -4.08831574022769927979e-02) (43, -7.27523505687713623047e-01) (44, -3.24438303709030151367e-01) (45, -2.68844842910766601562e-01) (46, -2.94678527861833572388e-02) (47, -7.95773714780807495117e-02) (48, -1.28202497959136962891e+00) (0, -1.79777264595031738281e-01) (1, -1.84008419513702392578e-01) (2, -8.59561190009117126465e-02) (3, -1.10854476690292358398e-01) (4, -8.17872136831283569336e-02) (5, -6.54878839850425720215e-02) (6, -2.38008637097664177418e-04) (7, 1.37265115976333618164e-01) (8, -3.33095908164978027344e-01) (9, -1.83765396475791931152e-01) (10, 8.62504467368125915527e-02) (11, -5.53254783153533935547e-02) (12, -1.68651029467582702637e-01) (13, -1.57014444470405578613e-01) (14, -6.14935010671615600586e-02) (15, 4.59794364869594573975e-02) (16, -2.50764280557632446289e-01) (17, -9.90241616964340209961e-02) (18, 9.00827497243881225586e-02) (19, -1.29289358854293823242e-01) (20, -2.32186838984489440918e-02) (21, -4.36744140461087226868e-03) (22, 1.07211552560329437256e-01) (23, -9.62609872221946716309e-02) (24, -1.20604366064071655273e-01) (25, -1.51799023151397705078e-01) (26, -1.88899502158164978027e-01) (27, -1.52650848031044006348e-01) (28, -1.50312855839729309082e-01) (29, 6.89091980457305908203e-02) (30, -3.27193364500999450684e-02) (31, -4.73832003772258758545e-02) (32, 1.62651687860488891602e-01) (33, 1.42864519730210304260e-02) (34, -4.07731160521507263184e-02) (35, 9.99698042869567871094e-02) (36, -8.94962698221206665039e-02) (37, -1.17064500227570533752e-02) (38, 5.45631796121597290039e-02) (39, -1.15988790988922119141e-01) (40, 1.89851447939872741699e-01) (41, -2.10386998951435089111e-02) (42, 1.57548829913139343262e-01) (43, -1.01794369518756866455e-01) (44, -2.55933016538619995117e-01) (45, -5.79084977507591247559e-02) (46, -2.18742474913597106934e-01) (47, -2.04838693141937255859e-01) (48, -1.69256126880645751953e+00) (0, 5.24024590849876403809e-02) (1, -1.46439552307128906250e-01) (2, -4.29794371128082275391e-01) (3, -3.15636098384857177734e-01) (4, -5.11475801467895507812e-01) (5, -1.04828014969825744629e-01) (6, -1.39498814940452575684e-01) (7, -1.64532601833343505859e-01) (8, 3.63464243710041046143e-02) (9, -4.10920381546020507812e-01) (10, -2.33437165617942810059e-01) (11, -4.12264496088027954102e-01) (12, -4.25009787082672119141e-01) (13, -1.69185563921928405762e-01) (14, -1.61536689847707748413e-02) (15, 9.26127955317497253418e-02) (16, -1.30805708467960357666e-02) (17, -4.24218446016311645508e-01) (18, -3.46572637557983398438e-01) (19, -5.80881059169769287109e-01) (20, -5.25661706924438476562e-01) (21, -4.18275177478790283203e-01) (22, -3.52839648723602294922e-01) (23, -4.47605967521667480469e-01) (24, 1.33473545312881469727e-01) (25, -1.81501537561416625977e-01) (26, -2.45578005909919738770e-01) (27, -4.93081808090209960938e-01) (28, -4.06902253627777099609e-01) (29, -5.12435793876647949219e-01) (30, -5.41573822498321533203e-01) (31, -7.81148195266723632812e-01) (32, 2.16458402574062347412e-02) (33, -2.87422597408294677734e-01) (34, -2.54061758518218994141e-01) (35, -6.16743505001068115234e-01) (36, -7.42374360561370849609e-01) (37, -5.18983840942382812500e-01) (38, -7.42951273918151855469e-01) (39, -6.03518076241016387939e-02) (40, -1.56641937792301177979e-02) (41, -2.71953195333480834961e-01) (42, -2.38664802163839340210e-02) (43, -6.24767482280731201172e-01) (44, -7.76785731315612792969e-01) (45, -2.77070522308349609375e-01) (46, -1.85033962130546569824e-01) (47, -1.24879842624068260193e-02) (48, -9.42431509494781494141e-01) (0, -4.73146699368953704834e-02) (1, -1.15865282714366912842e-01) (2, -7.41850677877664566040e-03) (3, -2.29648336768150329590e-01) (4, -1.33146733045578002930e-01) (5, -1.18035934865474700928e-01) (6, -1.99447125196456909180e-01) (7, -1.77498653531074523926e-01) (8, -7.18673830851912498474e-03) (9, -1.77956484258174896240e-02) (10, 1.60042330622673034668e-01) (11, 1.04638814926147460938e-01) (12, -2.98494458198547363281e-01) (13, -2.79148191213607788086e-01) (14, -3.04281145334243774414e-01) (15, -3.35456281900405883789e-02) (16, 2.50400155782699584961e-01) (17, 2.05605432391166687012e-01) (18, -1.90214738249778747559e-01) (19, -3.48036065697669982910e-02) (20, 1.42534583806991577148e-01) (21, 1.20813824236392974854e-01) (22, 1.42220109701156616211e-01) (23, 9.41973105072975158691e-02) (24, 1.39226555824279785156e-01) (25, 1.35995641350746154785e-01) (26, 1.57240018248558044434e-01) (27, -2.06370666623115539551e-01) (28, -1.55739471316337585449e-01) (29, -6.12850748002529144287e-02) (30, -3.79291176795959472656e-02) (31, 1.32728159427642822266e-01) (32, -2.02567532658576965332e-01) (33, 2.71386981010437011719e-01) (34, 1.34576380252838134766e-01) (35, -4.62271049618721008301e-02) (36, -2.29453355073928833008e-01) (37, -1.07818350195884704590e-01) (38, -1.23879007995128631592e-01) (39, -8.14643055200576782227e-02) (40, -2.43854969739913940430e-01) (41, 1.76415983587503433228e-02) (42, -2.00414419174194335938e-01) (43, 9.25650745630264282227e-02) (44, -1.93679511547088623047e-01) (45, -4.95395204052329063416e-03) (46, -4.34248261153697967529e-02) (47, -2.23104253411293029785e-01) (48, -1.66992819309234619141e+00) (0, 1.82251352816820144653e-02) (1, -2.00730174779891967773e-01) (2, -3.17170828580856323242e-01) (3, -1.37206017971038818359e-01) (4, -3.37516605854034423828e-01) (5, -1.65774479508399963379e-01) (6, -1.52437552809715270996e-01) (7, -7.32744038105010986328e-02) (8, 8.47393795847892761230e-02) (9, -3.24140310287475585938e-01) (10, -3.06341081857681274414e-01) (11, -2.14967995882034301758e-01) (12, -3.27926844358444213867e-01) (13, -1.31081506609916687012e-01) (14, -1.05178788304328918457e-01) (15, -6.39547556638717651367e-02) (16, -1.50975197553634643555e-01) (17, -1.56224459409713745117e-01) (18, -2.26760983467102050781e-01) (19, -4.58215981721878051758e-01) (20, -3.19752603769302368164e-01) (21, -3.85277777910232543945e-01) (22, -1.86409965157508850098e-01) (23, -4.04434323310852050781e-01) (24, 8.17527100443840026855e-02) (25, -1.57097086310386657715e-01) (26, -2.11245521903038024902e-01) (27, -4.24482554197311401367e-01) (28, -3.60143899917602539062e-01) (29, -2.77832508087158203125e-01) (30, -2.82672971487045288086e-01) (31, -5.38795530796051025391e-01) (32, -3.43846604228019714355e-02) (33, -2.13827759027481079102e-01) (34, -3.57836484909057617188e-01) (35, -3.86739850044250488281e-01) (36, -5.52291512489318847656e-01) (37, -4.07588064670562744141e-01) (38, -4.05284315347671508789e-01) (39, -1.93996071815490722656e-01) (40, -7.14019238948822021484e-02) (41, -1.59365832805633544922e-01) (42, -5.21158566698431968689e-03) (43, -5.04032254219055175781e-01) (44, -5.86575090885162353516e-01) (45, -3.23763519525527954102e-01) (46, -1.06484830379486083984e-01) (47, -1.14655576646327972412e-01) (48, -1.20099997520446777344e+00) (0, -1.26216588541865348816e-02) (1, -1.98911852203309535980e-03) (2, 1.36535884812474250793e-02) (3, -1.44875541329383850098e-01) (4, -1.63502097129821777344e-01) (5, -1.33519843220710754395e-01) (6, -2.12760329246520996094e-01) (7, -2.64737159013748168945e-01) (8, 1.85696274042129516602e-01) (9, 4.19743508100509643555e-02) (10, -1.90080609172582626343e-02) (11, -1.41831478103995323181e-02) (12, -1.96547329425811767578e-01) (13, -9.72984060645103454590e-02) (14, 9.16306674480438232422e-02) (15, -2.31627508997917175293e-01) (16, 4.42339479923248291016e-02) (17, 2.21777081489562988281e-01) (18, -6.45251572132110595703e-02) (19, -1.14130645990371704102e-01) (20, -2.85641819238662719727e-01) (21, -2.55646765232086181641e-01) (22, -1.49611160159111022949e-01) (23, 9.88104715943336486816e-02) (24, 2.91071329265832901001e-02) (25, -1.03602878749370574951e-01) (26, 2.55142211914062500000e-01) (27, 7.89253488183021545410e-02) (28, 5.36138564348220825195e-02) (29, -1.23507209122180938721e-01) (30, 2.55855564028024673462e-02) (31, -1.93630382418632507324e-01) (32, -2.31879591941833496094e-01) (33, -1.12131521105766296387e-01) (34, 6.86401594430208206177e-03) (35, 1.04438140988349914551e-01) (36, -1.41975596547126770020e-01) (37, 9.10348594188690185547e-02) (38, -1.39003610238432884216e-02) (39, -1.16498179733753204346e-01) (40, -2.11151614785194396973e-01) (41, -1.78921476006507873535e-01) (42, -2.70939767360687255859e-01) (43, -7.09948986768722534180e-02) (44, -2.94312238693237304688e-02) (45, 4.83693331480026245117e-02) (46, 5.89877599850296974182e-03) (47, 1.33031075820326805115e-02) (48, -1.69324660301208496094e+00) (0, 7.82900229096412658691e-02) (1, -8.09005498886108398438e-02) (2, -1.21157929301261901855e-01) (3, -1.57038018107414245605e-01) (4, -2.82950758934020996094e-01) (5, -1.60892501473426818848e-01) (6, -1.18922358378767967224e-02) (7, -1.54733702540397644043e-01) (8, -3.61711047589778900146e-02) (9, -2.59360700845718383789e-01) (10, -9.00392830371856689453e-02) (11, -2.17335045337677001953e-01) (12, -1.26684054732322692871e-01) (13, -3.71619872748851776123e-02) (14, 4.22363504767417907715e-02) (15, -1.19608014822006225586e-01) (16, -9.34888571500778198242e-02) (17, -2.86068767309188842773e-01) (18, -1.15618050098419189453e-01) (19, -2.78219044208526611328e-01) (20, -2.03249245882034301758e-01) (21, -3.01924884319305419922e-01) (22, -2.48648598790168762207e-01) (23, -8.03041830658912658691e-02) (24, -1.46697014570236206055e-01) (25, -2.54196196794509887695e-01) (26, -1.31742879748344421387e-01) (27, -2.53806650638580322266e-01) (28, -2.69439578056335449219e-01) (29, -3.45003277063369750977e-01) (30, -1.09456703066825866699e-01) (31, -1.50765866041183471680e-01) (32, 3.05054280906915664673e-02) (33, -2.76760369539260864258e-01) (34, -3.01159113645553588867e-01) (35, -2.49464482069015502930e-01) (36, -3.02505940198898315430e-01) (37, -1.47565409541130065918e-01) (38, -1.60178482532501220703e-01) (39, -1.54395833611488342285e-01) (40, -4.75180372595787048340e-02) (41, -5.73396310210227966309e-02) (42, -8.82048159837722778320e-02) (43, -4.36579972505569458008e-01) (44, -2.39908754825592041016e-01) (45, -9.99386757612228393555e-02) (46, -1.75117194652557373047e-01) (47, -7.67994448542594909668e-02) (48, -1.45986151695251464844e+00) (0, 4.00895588099956512451e-02) (1, 8.12676995992660522461e-02) (2, -9.97223611921072006226e-03) (3, 7.68944770097732543945e-02) (4, -5.72863519191741943359e-01) (5, -3.84141743183135986328e-01) (6, -2.36047938466072082520e-01) (7, -3.07609528303146362305e-01) (8, 1.58660843968391418457e-01) (9, -4.89034384489059448242e-01) (10, -2.29714378714561462402e-01) (11, -3.88615608215332031250e-01) (12, -1.63588181138038635254e-01) (13, -1.08263812959194183350e-01) (14, -6.18235245347023010254e-02) (15, -1.62854477763175964355e-01) (16, -3.97184491157531738281e-01) (17, -5.19405901432037353516e-01) (18, -3.29384386539459228516e-01) (19, -3.44473034143447875977e-01) (20, -4.64535742998123168945e-01) (21, -3.87538462877273559570e-01) (22, -2.46679633855819702148e-01) (23, -3.31614911556243896484e-01) (24, -3.96384716033935546875e-01) (25, -6.77438497543334960938e-01) (26, -5.54203391075134277344e-01) (27, -6.05676412582397460938e-01) (28, -2.27436020970344543457e-01) (29, -6.54115080833435058594e-01) (30, -4.90809231996536254883e-01) (31, -5.22249937057495117188e-01) (32, -5.07889568805694580078e-01) (33, -8.51055741310119628906e-01) (34, -8.10688912868499755859e-01) (35, -9.86410200595855712891e-01) (36, -4.88910257816314697266e-01) (37, -2.59266495704650878906e-01) (38, -4.49421375989913940430e-01) (39, -1.42922714352607727051e-01) (40, -1.69471472501754760742e-01) (41, -6.05170607566833496094e-01) (42, -1.42262205481529235840e-01) (43, -1.20018517971038818359e+00) (44, -5.30259847640991210938e-01) (45, -4.93957847356796264648e-01) (46, -2.69859489053487777710e-02) (47, 1.40415102243423461914e-01) (48, -5.48419952392578125000e-01) (0, 7.14320659637451171875e-01) (1, 7.60934829711914062500e-01) (2, 1.30772006511688232422e+00) (3, 1.23520064353942871094e+00) (4, -6.68392181396484375000e-01) (5, -1.85566082596778869629e-01) (6, -1.13468384742736816406e+00) (7, -1.20486959815025329590e-01) (8, 3.29650610685348510742e-01) (9, 1.04488503932952880859e+00) (10, 8.76388728618621826172e-01) (11, 4.97555285692214965820e-01) (12, 1.02317202091217041016e+00) (13, 5.68979978561401367188e-01) (14, -1.04169642925262451172e+00) (15, -9.31955039501190185547e-01) (16, 1.31724908947944641113e-01) (17, 1.03034416679292917252e-03) (18, 2.56595164537429809570e-01) (19, 1.18152880668640136719e+00) (20, 2.02658072113990783691e-01) (21, 1.19899547100067138672e+00) (22, 1.24335432052612304688e+00) (23, -1.26062240451574325562e-02) (24, -7.55075991153717041016e-01) (25, -1.22116811573505401611e-01) (26, -2.80226677656173706055e-01) (27, 5.41224718093872070312e-01) (28, 1.36990010738372802734e+00) (29, 4.40726459026336669922e-01) (30, 9.82348382472991943359e-01) (31, 5.06061315536499023438e-01) (32, -5.85013329982757568359e-01) (33, -6.17867350578308105469e-01) (34, -7.77878522872924804688e-01) (35, -8.08754146099090576172e-01) (36, -3.32092046737670898438e-01) (37, 4.96293932199478149414e-01) (38, 1.35587942600250244141e+00) (39, 